-0.1014595047,-0.153532018,0.06976516977,0.1316174647,-0.1179182937,0.09031217218,-0.05238645666,0.02962124145,0.05590842647,-0.001256655459,0.009028993151,-0.166738772,-0.05633011097,-0.1344615053,-0.04845990984,0.1218255369,-0.1452265928,0.001096364498,-0.1584281766,0.2314606876,-0.2088576852,-0.008556626492,-0.0950330893,0.1583210193,0.02509636189,-0.06467197249,0.0329656221,0.1577556678,0.1230789962,-0.241190088,-0.1250388805,0.007639954311,0.1327197221,0.2365794106,-0.1521777758,-0.05690154426,-0.1281285938,0.09491869376,-0.1618010144,-0.09378055872,-0.1623012779,-0.08589545502,0.1571152104,-0.008571741136,-0.1046607733,0.1513840734,-0.1632691333,-0.249902897,0.1350308042,-0.009541319375,-0.06869216331,0.09555628523,0.1421968647,-0.04235170033,-0.006333071065,-0.06413723834,-0.1261493512,0.1018580393,-0.01086860214,0.07949196217,0.1795944668,-0.02224125814,0.01055398032,0.009716934735,-0.1031846568,-0.1258197165,-0.09810255054,-0.1706749621,0.0166814528,0.104018302,-0.06816261464,0.03086565831,-0.1232898923,-0.07751163594,0.1922893941,0.1118311067,0.05706139613,-0.1176313697,0.1535335696,-0.2106537758,0.1591820808,0.1152409275,-0.08174957378,0.03149643506
