0.105793033,-0.135525141,-0.07883701665,0.1631892786,0.02160918282,-0.03824050075,-0.2123406819,-0.01457687526,0.04655303126,-0.2752643182,0.1780213186,-0.06107034288,-0.1342080216,-0.374568959,0.1241976107,0.09231645625,-0.2270591355,0.02737502262,-0.1026893497,0.1925277625,0.1486178221,0.09033850614,0.05320833537,0.06070136374,0.1277528558,0.06484069748,-0.1261477833,0.004279555801,0.1173385791,0.119652219,-0.2102788064,0.02222831591,0.167492621,-0.1379170821,-0.02601818783,-0.03469469508,0.02295648093,-0.06356942679,0.09417323372,0.05257330916,-0.2007163601,-0.2593675479,0.1688257949,-0.00686412498,0.2091615573,0.03437684715,0.07791796395,0.01521271513,-0.1128559736,0.02483548345,-0.2773124083,-0.1064518905,-0.1943770775,-0.06573532596,0.0727304624,0.1027737217,0.04149221345,-0.01092992236,0.1769324044,0.04597268193,-0.06700843811,0.003368689436,-0.05738746859,0.05573152443,-0.1937080314,-0.3206871946,-0.06980727406,-0.1810273214,-0.239536855,-0.09439027484,0.06313437294,-0.1319304981,-0.005459175758,0.03239702236,-0.1701205536,-0.02842885322,-0.06497358519,0.08780784725,-0.1333924473,0.0679361625,-0.1345205822,-0.2037303239,-0.06728137381,-0.002142830665
0.07038965208,-0.1928706136,0.02844754858,-0.04142084404,-0.04806279586,0.01472460614,0.06882200449,0.04760927365,-0.04063620748,0.01703418246,0.01208300958,-0.03259742429,0.05597951384,-0.00537356508,0.1136293884,0.04278014824,0.01499737806,-0.09048415927,-0.02930039166,-0.1681848341,-0.3826611956,-0.1849494658,0.1573057628,0.152164474,0.1866281994,-0.01158506422,-0.07850884595,0.1573456815,-0.03364611706,-0.02132959393,0.1255041741,0.0427571139,0.04448330886,-0.128453278,-0.2182126647,0.03914743755,0.1791424623,0.3229199359,0.07491226328,0.02202725566,-0.05409168299,-0.1110323006,-0.1443043041,-0.08985980917,0.2050786182,0.1349520964,-0.04787680054,-0.5441403978,-0.01260190149,-0.03277480112,-0.1947156416,-0.1060483916,0.1909155494,0.07627277931,-0.008911111097,0.1332086703,0.0119482579,-0.2276205723,0.05145429258,-0.03042086812,-0.0686144735,0.1618975175,-0.1134509958,-0.4599455879,-0.07587316348,-0.05070583422,0.1387884653,-0.2059675524,0.1467446768,-0.05573644996,0.1701238804,0.2202460582,-0.160160791,0.03611532925,0.2195805099,0.1433327365,0.1177516797,-0.05478630554,0.3470248068,-0.06685550151,0.1400890465,-0.03068010203,-0.07574228375,-0.114879088
0.1694822877,0.08281965596,0.07293549901,0.03343423536,0.1143931534,-0.07933124773,-0.1496753024,0.2543767483,0.01037327836,-0.05859773415,-0.04156777398,0.1102690981,-0.07377910436,-0.05372232064,-0.1567642461,-0.1259858384,-0.1237958268,0.01643901404,-0.07934723823,-0.1105053182,0.07678713383,-5.465748911e-005,0.07905259262,-0.2564936331,0.05886821417,0.09917379365,0.06541725274,-0.09870665239,-0.02496580822,-0.04189797976,-0.1549882975,-0.1004727756,0.06003533558,-0.06244335631,0.08446590757,0.06169009471,0.101526528,-0.09037574626,0.06263479034,0.0777495193,0.02878089303,-0.03620043056,-0.02965864174,0.05325583839,-0.05004901577,0.03711726119,0.01138887501,0.1549492494,-0.0962567839,0.1264854797,0.006610130534,-0.2056061196,0.1335312414,0.06049883673,-0.03820786676,-0.1654525707,0.1294559792,-0.03656691129,-0.03759934025,-0.05261724479,0.05723186885,-0.01203278889,-0.005842573154,0.1764587475,0.04447689465,-0.01078545601,0.1785652213,0.1476892807,-0.09145540679,-0.09801173804,0.04760616219,-0.1196106577,0.05626990289,0.1531045788,-0.2757857449,0.04944917073,0.04838082797,0.06867509021,-0.2832410346,-0.04956001268,-0.1045159725,0.03740630229,-0.1052979364,0.06926079823
0.1245799315,-0.1311016522,0.06202912921,-0.103845814,0.0167770436,-0.06598500339,0.1464290373,0.3000061859,-0.122945564,-0.02073286648,-0.2861745562,-0.09770374696,0.05256929737,0.2185191267,-0.2619691722,0.1169555032,-0.01412686091,-0.09786484695,0.004315210367,-0.3493262857,0.06759452573,0.2702597624,0.03152479797,0.04367110942,0.07550098717,-0.01656822912,-0.105537393,0.1282302387,0.001774880093,-0.05089892173,-0.005907020337,0.1361559869,0.04674211578,0.1152505267,0.01371351364,-0.1042242363,0.09343853049,0.2020549464,-0.1485645731,0.07040903307,0.2332801485,-0.1069656399,-0.3379729198,-0.1508602169,0.003172540001,-0.02172825288,0.02673325725,0.7014469573,-0.08765487761,0.1155470604,0.1748838639,-0.1446606903,0.128325708,0.03654463914,0.1918643955,0.0496473098,0.1309068228,-0.3696113454,-0.09824504671,0.07256801649,-0.1168033106,-0.1428148085,0.1461659563,0.008153883785,0.3750039722,0.2247410089,0.2325007025,-0.05074718722,0.2290479106,-0.007536091644,-0.04055625569,0.2787689094,0.1144181635,-0.01864940147,0.05634639435,0.1061414145,-0.1577939555,-0.08110051635,-0.2298949712,0.1037012345,-0.08268161848,-0.05535136835,0.05244911448,0.09053172373
-0.1899307185,0.2336376189,-0.04418012597,0.02802893669,0.1079981521,0.118772722,0.04615331677,-0.02910641695,0.1933403505,0.04660443732,0.07791283833,-0.02018966003,0.05390590359,-0.03088729897,-0.2599993994,0.2525227627,0.04288259888,0.1671337052,-0.05097280832,-0.02513571867,0.1143907354,0.1691068848,-0.2830531797,-0.04095532021,-0.07279679735,0.129446094,0.01627010313,-0.005290527625,-0.01587051837,0.1356416797,0.07903157121,0.1101667398,-0.08430539598,0.003275704852,0.004793947755,-0.2467002967,-0.01093920063,0.1905544056,-0.1660469134,0.1454326873,0.06387572343,0.1147144148,-0.2267571473,-0.1300617319,-0.1767770225,0.04883803343,-0.2995433596,0.3949504969,0.08681589658,-0.1466935117,-0.09788189586,0.008918424166,-0.1108222067,-0.0956609597,0.06644265877,0.05118616709,0.2202637592,0.2330654352,-0.03442935846,0.1291276559,-0.04002266936,0.09760587707,-0.1281934133,0.03575278917,-0.2087953745,-0.0488782304,0.1264567463,0.006581085127,-0.1117711745,0.07516865885,-0.1514539069,-0.3273560668,-0.4519292531,-0.05864041348,-0.05595427563,0.11926975,0.03505583972,0.05411903755,-0.4313412289,-0.1677822053,-0.03424604321,-0.06361188444,-0.07167512889,-0.1035126404
-0.03801677308,-0.3772734005,-0.1148948079,0.0697934617,0.1126337308,0.1185723105,0.1561968987,-0.1494742565,0.04273004138,0.03326726561,0.1520754597,0.0359327089,0.01030734053,-0.1967419464,-0.06410551813,-0.08033446518,0.08905208261,-0.1259935621,-0.01154821135,-0.09546283588,-0.6548667545,-0.2064193264,0.05814486429,0.2766021542,-0.03033253823,0.03648109857,0.06882734893,0.06995105147,0.03268994452,-0.2371079556,0.01364532838,-0.1678189632,0.2241989257,0.1008786805,-0.09503370121,-0.0369047749,0.09856726767,0.301618059,-0.1630772035,-0.08040086656,-0.2398784088,0.05830460998,0.1608870207,-0.05629688209,0.1842012514,-0.1056605757,0.0038773197,-0.4037913581,0.02365668848,-0.3011989941,-0.2357255851,0.1262244545,-0.1490583483,-0.03918999732,0.1489337253,0.1291360873,0.174467882,-0.04849535401,0.08461555055,-0.2335965984,0.06137206905,-0.101353992,-0.01599267336,0.03208975961,0.003060389886,-0.2186294867,-0.1936825516,-0.2087120778,-0.07324715748,0.06305732462,0.02950866152,-0.02633755546,-0.03613748064,0.06942009103,0.4537519772,0.2938487537,0.085640102,0.1206138868,0.4106009351,0.00352394936,0.2803798711,-0.07228427536,0.05408607086,-0.03802872027
0.003174939471,-0.2179304411,0.1617498524,-0.05458592013,0.004889533169,0.1257656575,-0.0305058931,0.2321065756,-0.0005980437789,0.1150449937,-0.05281036914,-0.1306568688,0.02413931353,0.2592921145,-0.198000121,0.06068549124,0.196889443,0.1171272699,0.1767996561,-0.3899362703,-0.137531472,0.04101754672,0.2100343866,0.08438153365,-0.07733112237,0.04960353506,-0.01088360351,0.1862043748,0.01705638944,0.2179640621,0.1591204394,-0.07606766773,-0.06102853229,-0.2183028203,-0.009941414348,-0.04697523261,0.0108441971,0.1695646959,0.1397451268,-0.09290797103,0.0110475178,-0.07233158965,-0.2153878323,0.01592345829,0.04514249588,-0.09243027864,-0.06381624587,-0.1406853638,0.1070309236,0.1249450531,-0.12389775,0.1106123827,0.1459657296,-0.07442731682,-0.03044613121,0.2615221343,0.2480717418,-0.04024640824,0.3895524923,-0.1697442217,-0.1937104516,-0.04185331858,0.1696400708,0.0523331627,-0.1081893967,-0.02030134243,0.09918943815,0.08095934241,0.2235078645,-0.03454491952,0.03828871892,0.1161010495,-0.0555303437,-0.03183932591,0.277898267,0.2045569971,0.0892834506,0.07371918192,-0.1770470787,0.1184131005,-0.1619287199,0.1102376032,0.06577176857,0.01877815884
0.01401363357,-0.2603917114,-0.2011189652,-0.09045068772,0.1791413043,-0.06898293414,0.1891591401,-0.009717880887,-0.1186432027,-0.123567771,-0.01110228158,0.139685527,0.202112695,-0.203475541,0.03614901173,-0.2031713731,-0.07103537264,-0.1664938526,0.01087350805,0.1591397236,-0.3831374012,-0.1476432712,-0.08944491824,0.02481671576,0.028407483,-0.1470031484,-0.1192586719,-0.1282883007,0.01153554878,-0.2698217019,0.06498008906,-0.008381469837,0.2004452085,0.1563023604,-0.0470749625,0.2975178769,0.1764418768,0.07173535339,0.05820060932,-0.3203436126,-0.1524456974,-0.02949834406,0.1837739238,-0.06389675272,-0.05751793101,-0.04286840918,0.1004416362,-0.3048708514,-0.1132421255,-0.1798685028,0.2317851709,0.3551235462,-0.1765627807,-0.004524847976,0.05786335878,-0.1040794321,-0.06104652222,0.04919356261,0.1675614317,0.1867639225,0.06890115678,0.09802641062,-0.1052393745,0.04106330595,-0.1152867375,-0.1070386773,-0.3007966426,-0.01839705695,0.006291794113,0.1746190502,0.2472659387,0.1382770132,0.2722201375,-0.1040000825,0.2597587815,-0.003044872005,0.0002867754498,-0.08291420691,-0.03910806129,-0.04246277036,0.150698816,-0.0363793763,0.01288394475,0.1123308925
-0.01502068366,0.05490390873,-0.05726630498,0.1538278277,-0.01034058354,0.1396250249,-0.08633921871,0.2502420958,-0.1238152413,-0.002944440643,0.1420403684,0.1151083543,-0.02510855436,0.1463762418,0.1339835985,0.2765514617,-0.004546630019,0.2717391397,0.05299258459,-0.1754406163,-0.135950284,0.3531840542,-0.3820487621,-0.05966515458,0.05360967764,0.0004825020241,-0.02227760246,0.3262905269,-0.1561292169,0.2567259989,0.03359322122,0.1665758452,0.06389333674,0.01723545869,0.1407160594,-0.2326859283,-0.1434674894,0.1289802334,-0.0890276537,-0.00749354261,-0.04513470327,0.01672582607,0.1550415015,-0.09185798644,-0.193763342,-0.04411939272,-0.1986889496,-0.01485066789,0.1885612858,-0.07603975485,-0.1546183171,0.08684326027,-0.06989390935,0.0676193063,-0.01694358286,-0.02833029089,0.01806028851,0.09525135886,0.08029423473,0.2169611051,-0.08733528468,-0.09441642287,-0.127750273,0.02629946776,0.003145015103,0.1285804017,0.08695923965,0.1074637053,0.1322446829,0.01647965516,-0.02099116689,-0.14886016,0.01122714882,-0.2017369378,0.2068536591,0.1136653676,-0.1064851017,-0.1519864868,0.3206073202,-0.09898455243,-0.292674668,-0.03992775182,0.09167113071,0.0522656059
0.08608153522,-0.21882188,-0.04696446633,-0.1011491103,0.004629069668,0.07543076273,-0.2313547073,-0.2228341959,0.01073472104,0.1906418202,-0.02322075297,-0.02145825982,-0.168439254,0.173699576,0.1086180627,0.2081204458,0.2935687759,-0.05951896591,0.06883429288,-0.2015787208,-0.1869371323,-0.2038932221,0.2374806959,0.04048007735,-0.05552433468,-0.06057340877,-0.2406607975,0.2070641888,0.05419688096,-0.4576185967,0.1644800684,-0.1911760402,-0.03205807072,-0.03585325751,0.08062956593,0.05452756099,0.2448786584,0.06823493218,0.177256312,0.1204195416,0.1162232354,-0.09138678308,-0.00683988464,-0.1429700947,0.1475199111,0.06841530176,0.1299289778,-0.4096176232,0.1876577207,0.05858321499,0.02681994901,-0.04536685015,0.08785279514,0.08179878998,0.0236478354,0.3371640145,0.05478175867,-0.274550551,0.04203542385,-0.004468727501,0.1504991322,-0.011585182,0.04578412848,-0.2554902254,-0.07493287424,0.2444120971,0.1262028241,-0.01262110601,0.1899671412,0.2798715645,0.04053810172,0.0790747665,0.2426990191,-0.06553304862,-0.09704258202,0.1507255461,-0.07860119361,0.07573459183,0.4295666708,0.1186820625,0.08338957201,-0.1068177028,-0.04175261697,0.05191408104
0.07490208581,-0.1380953986,0.08037434333,-0.03234103493,-0.1478973712,0.08234233325,0.01269050263,-0.2726048424,0.04349552609,0.006432559172,-0.07111804398,0.01122347345,0.02579750423,0.2519815451,0.1210788669,0.4700478134,0.04675844862,-0.03803826815,-0.2221993295,0.1436846467,-0.05993970402,0.2966761052,0.01886697939,0.1601139973,-0.1010664459,-0.07401284277,0.03154763141,0.07075815774,-0.01670034085,-0.1063608673,0.1042415117,0.03430828655,-0.2000828474,-0.05642027106,-0.1498576844,-0.1698352509,-0.0262376584,0.1977124807,0.0699798223,0.1721489345,-0.04075481565,0.01203405617,0.02387793404,-0.06881514226,0.05852606328,-0.1961509395,-0.1494814261,-0.08488023338,-0.1879078552,0.0004558729993,0.02261951148,0.03347831643,-0.004680366806,0.1067427998,0.06070590076,0.2677496423,-0.0766752926,0.2087711497,-0.004165568902,0.1347424051,-0.160791799,-0.09825901099,-0.09268358673,-0.1164930006,-0.003286943743,-0.1575737871,-0.189822267,-0.08293031208,-0.1830924513,0.07415626589,-0.1745881773,-0.1152229456,-0.06198787483,-0.05269677997,-0.1110732918,0.06355591974,-0.07150703586,-0.1596267779,0.2656208011,-0.1103401165,0.1662312565,0.06715953778,0.04302188494,-0.0302562393
0.2271921596,0.2796218925,-0.09714172382,0.04422064877,-0.139186026,0.08014469865,-0.06996227127,-0.04786581721,0.05450141389,-0.002927011528,-0.08985392975,0.1581647308,-0.2593597448,0.01801218226,0.1038068127,0.4164684544,-0.1753438228,0.06651017642,-0.126178448,0.09334462941,0.4699879738,0.2499735164,-0.1542136237,0.08672703031,-0.192856514,-0.1330048904,0.1017053643,0.0009145314809,0.06740944181,0.01187415819,0.06084293565,0.1548168535,-0.208548909,0.1313037666,0.05784051217,-0.3044925223,-0.06443744948,0.1171245373,-0.1799538437,0.07254837535,0.01575824372,-0.1336409687,-0.4092517617,-0.111705806,0.006242140303,-0.1592354003,-0.210324383,0.2148053569,0.1169186659,0.1574103592,0.1807467172,-0.3493644567,0.08634610063,-0.05971968366,0.1803148658,0.03223200585,-0.2128517176,0.06178709918,-0.2378044694,0.05462279341,0.05838829084,-0.1697396496,-0.1107996982,-0.1535114407,0.2853095835,0.04193720211,0.2001338604,-0.046368845,-0.103899981,0.07800744579,-0.1346849436,0.1177075708,-0.01233971144,-0.07397362005,-0.3529632406,-0.09594493401,-0.01437817986,0.1366525304,-0.04012832959,-0.04258167387,-0.05741762915,0.08290613746,-0.1948597858,0.1938507042
-0.2755725288,0.03096284183,0.1203961278,0.02394464704,-0.007224006998,0.1673908798,0.05472151952,-0.03975842635,0.07144399298,-0.0934968068,-0.05463555544,0.05782503637,-0.1256049983,0.2495156738,-0.01960464297,-0.1152462989,-0.06486445174,-0.01480021986,-0.05926511941,0.06872163901,-0.07861857679,0.03816876981,0.2551195067,-0.1355905829,0.0008338614701,0.06072442328,0.08035033446,-0.1101850704,0.06649407946,-0.3507547095,-0.08374106531,0.1115381501,-0.1473442341,-0.135054277,0.128071934,0.08034929318,0.1720727449,0.04951109458,-0.009470032901,0.1583342264,0.1027552571,0.1681998626,-0.1641065447,0.08940961407,-0.03338405585,0.01494669652,0.002109188725,-0.1582434353,0.0007342552192,-0.04470350698,-0.1242189912,-0.2670252248,-0.1187841969,-0.08741539315,0.06747097201,0.09548777373,0.116227801,-0.03852602635,0.03318750587,-0.0399012026,-0.1100372278,-0.1241992178,-0.04461761173,-0.2290183508,0.02614994562,-0.1010838855,-0.1433741809,0.2696670164,0.137149837,-0.06514634087,-0.1656574525,0.08831993014,-0.2525072369,0.04411428244,0.00879141775,0.02511823182,-0.01560053706,0.03369730696,0.1449768253,0.3465744367,0.1025565888,-0.01065294888,-0.09438090505,-0.1064425674
0.178285211,-0.02536756332,-0.104199643,0.0104753844,-0.140364642,-0.06054299089,0.08864333161,-0.2249024102,0.3547589037,-0.2923659495,-0.04180116846,0.1403495894,0.02646458652,0.04393671358,0.04317247773,-0.1764039783,-0.1661292892,0.08906968133,-0.152268914,0.09275621283,0.3802065295,0.1696921938,0.08335586271,0.06734052619,0.01664391539,-0.06486080362,-0.03325804003,-0.01848754213,0.05710749592,-0.002607684088,0.04507282166,-0.07650546276,-0.08128658421,0.1562762605,-0.0719698615,0.1388242841,0.09835264076,-0.05195744974,0.0134035779,-0.05356543058,-0.09700046149,-0.1488261994,-0.1343823813,-0.146090067,0.03077253133,-0.06785310884,-0.003068129981,0.1074361662,-0.1222180591,-0.00660518412,0.2105535672,-0.2031312063,-0.04630057719,-0.08329134126,0.2836432877,-0.008385500094,-0.09552879642,-0.007191640207,-0.2560749696,0.3719337854,-0.2046395452,-0.05881972176,-0.06159708222,0.1739378343,0.336297298,0.1240438127,0.2020216388,-0.1047288583,-0.110652933,-0.1140811951,-0.1201675917,-0.02588133201,-0.008758240212,-0.1362108533,-0.1077471792,-0.03296946832,-0.09047474608,0.1791691288,0.4613256124,-0.05587116765,0.1855603829,0.04700935101,-0.06230044823,-0.09960044251
-0.0667302089,0.07870122609,-0.1047541639,0.001931476209,-0.06530095897,-0.01283483698,-0.04693291448,0.007370419175,-0.1488906398,-0.002941221561,0.1799159994,0.1665181083,0.5414904267,0.106100487,-0.1699470831,0.1567307109,-0.01978118175,0.1373624885,0.3859881659,0.07160383907,-0.4946820598,0.1765177959,-0.5277473348,0.0007501744444,0.107732102,-0.08590261264,0.01067777404,0.1184822466,-0.07685385579,-0.04059733963,0.1478460187,0.4544019895,-0.06893154703,0.07143969236,-0.2002457884,-0.02640224004,-0.158494007,0.1007384219,-0.2214439899,-0.08739042015,0.1084279363,0.1778299186,-0.1146658482,0.009868586899,-0.01851037168,0.03666926879,-0.0910807246,0.128692629,-0.2764179697,0.0933530527,-0.04652346323,0.1508106555,-0.1093741264,0.0297452389,-0.09009601962,0.1474691426,0.03946215326,0.02417602905,-0.03703176179,0.143320664,-0.1499162961,0.1170910949,0.1508686323,0.1468430687,-0.0102035293,-0.08230282114,-0.08628434728,-0.1503775927,-0.01177056561,-0.2056681207,0.06466079337,-0.07910324644,-0.2325908265,-0.1290323775,0.4531833295,0.02313356344,0.009670181478,-0.1734863307,0.005020370549,0.04917608464,0.2305231874,0.0555174136,0.3120318288,-0.01668329541
0.1577976073,-0.2221107243,-0.01533711287,-0.05054321288,-0.03795286787,0.10827914,-0.1716613278,-0.04341311618,-0.09046976983,-0.1247857102,-0.1532945782,-0.03925092893,-0.06816421864,-0.2824478586,0.06558112482,0.3037941305,0.06926875616,-0.1073509201,-0.1285037133,0.2316723541,-0.2220615349,-0.1086257085,0.0808010951,0.1107109491,-0.1298891279,0.08250875517,-0.04452533381,-0.1422100032,0.01854884161,-0.2698196024,-0.02104671166,0.001752531483,0.03674092482,0.02655538002,-0.1443798927,0.2352195293,0.153477379,0.1272022034,-0.1236618028,-0.05770236519,-0.2945186468,0.06905463126,0.05174423097,0.1115215533,0.106991588,0.06272991452,-0.1265039952,-0.3381101464,0.06871945495,-0.1229495057,0.06344219043,-0.04065142899,-0.01080210037,0.1022846197,0.1230757264,0.1291831122,-0.1960048468,-0.1444425106,0.1054805723,-0.03505986231,-0.07020080735,-0.1115819999,-0.2544698973,-0.3306743325,0.02498241348,-0.2869574366,0.03388747328,-0.1569400549,-0.1163761507,0.154344207,-0.005184058806,0.3759103613,-0.03750666803,-0.06964498118,0.01003051843,0.06681236955,0.1357696995,-0.01792480772,0.006195248392,-0.2627533441,0.3091227877,0.05448490418,-0.0872247512,-0.08262333655
-0.01724940814,0.3266991116,-0.1156056677,-0.03306485506,0.1621050403,0.112465003,-0.007259172147,0.02163410694,0.1114865133,0.04741050684,0.03760151979,-0.006038115137,0.1261117615,0.06388757933,-0.1133223303,0.02938263449,0.2434124827,-0.02924274768,0.1776746942,-0.08238907035,0.003355148509,0.1902931638,-0.2975123635,0.04897963898,0.02477082907,-0.04928818666,-0.1623212183,-0.03027858576,0.004594053015,0.36525804,-0.1228084776,0.2747629172,-0.1593088698,0.1240324342,0.0991121926,-0.006896864982,-0.1641299242,-0.1252080337,0.06792311602,0.1283083962,0.1749531726,0.006974831456,-0.2116294758,-0.08502323327,-0.02402463575,-0.144858923,0.007473640137,0.5355865686,-0.1385126125,0.1835779536,0.2140829249,-0.1146132994,0.04236961139,-0.07143127209,0.2709800406,-0.04695147938,-0.02593348357,-0.1997272684,-0.09597239548,-0.1089941516,-0.05773372878,-0.02928240036,0.0466079727,0.04139954301,0.08893370469,-0.1229571777,-0.08683649517,-0.1403596176,0.2249673681,0.02603552787,-0.0478593632,0.2070944498,0.1183972709,0.1047556814,-0.1359448443,-0.001415946907,0.06976341332,0.05830846466,-0.1540910686,0.1361195077,-0.07631069467,-0.04681814162,0.1934869911,-0.1257897432
-0.1285849034,0.1205409162,0.03475184469,0.02170675215,0.1358476496,0.1143676755,0.1865471005,0.09334430832,0.02930220951,0.1633729643,-0.0135109382,-0.05867765729,0.1492530129,0.2292756969,-0.1062523138,0.05759876729,0.2569323218,-0.008412537132,-0.09425290885,0.149972137,-0.06171352977,0.01107952417,0.07564386974,-0.004414805385,0.04150808176,0.1026473926,-0.01247723733,-0.08544769736,0.03996820716,0.2728767131,-0.02448002936,0.1796571695,-0.03877585602,-0.05142791721,0.08781494183,-0.02159486893,-0.1661796875,0.01695786045,-0.003488328062,0.171497762,0.1112170766,0.2673927569,-0.1384473441,0.06549265093,-0.1235905252,0.04954298787,-0.4195724974,0.1546460529,0.05981499097,0.00917777429,-0.1685787152,0.2316159196,-0.06597817079,0.1566692966,-0.04298341789,0.1880260376,0.02930440545,0.01165740487,0.08680648855,-0.150821252,0.09038931572,-0.08659650479,-0.08046086893,-0.06546769756,-0.005499009164,0.05664625011,-0.07229284316,0.1005650884,0.2309552259,0.1459865289,-0.1188459255,-0.1238705961,-0.6309529939,-0.0667493584,-0.1928840379,0.009757719409,0.1030063265,-0.2640773317,-0.2661190549,-0.07365086936,0.01781796892,-0.07139906354,0.02630996197,-0.1245267275
0.05129026814,-0.1392684541,-0.07167151363,-0.08844481217,-0.07019490568,-0.1038767508,0.04834791383,0.221705571,0.04547914318,-0.1217642045,0.1461910181,0.05799186095,0.1421373293,-0.1978907261,-0.1467772486,-0.07457711511,-0.001620832739,0.1199668849,0.1628287428,-0.1737220563,-0.02985904972,0.1160186513,-0.0007841670149,0.1874230085,-0.08729868047,-0.06381127972,-0.09426783739,-0.07852190915,-0.1049956972,-0.08428316605,-0.06385226039,-0.05047149938,0.1140281955,0.1043681717,-0.00645131058,-0.008104532809,-0.05174431332,-0.03766002863,-0.117906743,-0.2061617746,-0.1826844921,0.009491551492,0.2004294264,0.2193683733,-0.06225538734,-0.009464804549,0.3154360324,0.03468033649,-0.104613866,-0.06260030449,-0.1748472296,0.1538415589,-0.1152067574,-0.008235259032,-0.04251791883,0.07499051328,-0.01444246092,0.065487228,0.05808925047,-0.04978765852,0.08596547896,0.0311305412,-0.07020073135,0.05985258928,-0.07501386748,-0.1240156969,-0.2296669766,-0.09319947892,0.186121724,-0.04466552039,0.1211342029,0.02818806217,0.2005126476,-0.1526644416,0.4535860502,-0.2095296266,-0.05051698739,-0.0517628766,0.06994013486,-0.08120473994,0.004139466453,-0.1029002745,0.02187847942,-0.07627151621
-0.1017188466,-0.0561901935,-0.02716480386,0.03267008886,0.09163986215,0.154707486,-0.01801920207,-0.1339706799,0.01117470434,-0.02361780305,-0.07133543714,0.09503551718,0.05409714168,-0.2577563078,0.1232398313,0.2918226765,0.04593334466,0.2002020359,0.04224509416,0.1121935253,-0.2548528307,0.04120153648,-0.059803452,0.01667955986,0.07475964254,0.05483103549,0.0303431745,0.03098544478,0.002081242957,-0.1400113931,-0.01931056538,-0.1769958205,0.08211200409,0.01074103732,0.06741237045,0.06231051874,0.02810842406,0.03850661564,0.04957019772,-0.2010635972,-0.263778008,-0.1121254667,0.1996409219,0.0340362682,0.03275331049,0.1623052921,0.2113994955,-0.3846989631,0.003418816887,0.0804634509,-0.2064114572,-0.104387682,-0.2432261567,-0.08275341479,-0.1366253321,0.244597007,-0.0003254002505,-0.3146121509,0.1437926995,0.1085598563,-0.1209775901,0.08257683934,0.03025219289,0.1173605776,-0.1723693673,-0.1584666569,-0.2761525392,-0.2148694331,0.1175436804,-0.02350000731,0.1712052907,-0.000291260091,0.1397029438,0.1975307254,0.1236519442,-0.142667726,0.01551240151,0.05734312218,0.1802368501,0.1437822931,0.03511740505,-0.03848608931,0.06688819355,0.04149865332
-0.08359923455,-0.1479094754,-0.002890692927,-0.1035730131,-0.02283805456,-0.1138202993,0.2298417624,-0.05250172652,0.2371805745,-0.2430729439,0.1120941201,0.02419516072,0.02341651344,-0.146616545,0.02852845275,-0.04852019057,-0.09534912767,0.1330631767,0.009225880346,0.2953353581,-0.1251989631,-0.2436546284,-0.01500865825,0.09939856422,-0.07871566024,0.035879702,-0.131311098,0.1446473521,0.04893836861,-0.1707458143,0.03088941501,0.1051082531,0.08359203925,0.07089691482,-0.2127014822,-0.02215081283,-0.02788343495,0.2424070012,-0.1083430019,0.000719351326,-0.2824823507,0.0932882214,0.1421539928,-0.05647624914,0.272259623,0.03582870428,0.2184599032,-0.5994061899,-0.115761543,-0.3110998254,-0.2036736006,-0.01933454884,-0.1337482411,0.05771442083,0.1071293312,-0.05747005277,0.08665470429,-0.02720311943,-0.04747105041,0.004883147508,0.08926768103,0.1192431094,0.04799878815,0.04794140957,0.1540909844,-0.2752478104,-0.0842825396,-0.1716574804,-0.09981686321,-0.1436163977,-0.001422617653,0.06084061805,-0.02822261001,-0.007319140087,0.4152640269,0.2056344614,-0.02696190975,-0.08405609774,0.4509246105,-0.04428397182,0.2695175604,-0.01525172102,-0.1703050283,0.06077254873
0.0943217957,0.01858459946,0.1287449405,0.08224594729,-0.1499323125,-0.08910795682,-0.01637913815,-0.03737521769,0.207059317,-0.1021158997,-0.02456054193,0.1986009937,-0.2702297462,-0.1020236601,0.2946158737,0.2829465435,-0.06387066837,0.1136536188,-0.08760863016,0.2419258605,0.2846683586,-0.2875627707,0.04790607323,-0.09519904864,0.08957097958,0.05601993096,0.0707934241,0.03541484634,0.02311007242,0.1419438887,-0.08448034776,0.125533908,0.02100780565,-0.09056554788,-0.010594479,-0.09228825457,0.1612405579,-0.04811251576,0.1219474274,0.1543978603,0.04217724822,-0.2089979135,0.06846335009,-0.2004126147,0.1466911273,0.1214525495,-0.1005417548,-0.3888264822,-0.07959405422,0.1678248053,-0.2095893104,-0.37611907,-0.1597709217,-0.04618931343,0.1761594646,0.01899330627,-0.2207434104,0.1049140685,-0.1512593487,0.230390205,-0.1130195025,-0.004179338062,-0.1080045475,-0.06991900597,0.129423597,-0.01321025303,0.2646860455,0.09430757593,-0.03298058832,-0.1179824927,-0.1198393108,0.1912998618,0.03236413031,-0.03345436729,-0.4457454546,0.1175335702,0.1151939844,-0.07124964869,0.1546132511,-0.07958012551,0.1878397993,0.004718421919,-0.02199541719,0.1283091166
0.05132272352,0.1419382803,0.1562530351,-0.04079129697,0.07807152178,0.03315536638,-0.1306555884,0.1075093277,-0.02394306442,-0.09141486045,-0.1238238195,-0.0389021108,0.1892727476,-0.06275829906,-0.1519703033,-0.2052906655,-0.1866670872,0.06958628403,0.0238627184,0.03769280129,0.2185323717,-0.03317423966,-0.06101896099,-0.171161556,-0.06329283294,0.018777969,0.01903503986,-0.2146821171,-0.007554820203,0.02510118763,-0.09647029308,-0.02962234671,-0.1538097808,-0.09421618526,-0.04389972437,-0.08288917604,0.02492011634,-0.352913412,0.1138884254,-0.1379075202,0.09499323202,0.1636839906,-0.1795930059,0.03133030603,-0.04879123465,0.1452897206,0.1259732555,0.349495344,-0.04095054449,0.1659372406,0.1408963161,-0.05666228762,-0.1974386406,0.02296510292,-0.1195142676,-0.2257835005,0.2642150137,-0.01742612593,-0.1057564341,0.00321128891,0.1110854543,-0.1003742525,-0.02289785255,0.2835742516,0.0678287532,0.02650204991,-0.06259753887,0.003378851833,0.0853689906,-0.220877993,0.0173829883,0.006010856082,0.02018277953,0.171544554,0.131272677,-0.1052822035,-0.1325349943,-0.1002242236,-0.3463847855,0.06344639177,-0.2406746569,-0.01841647084,-0.103118218,0.03954221181
0.1787821461,-0.1016156847,-0.07188609672,-0.09949644492,-0.1213792384,-0.08009949858,-0.005373182016,0.1045746608,0.03389628384,0.1499414398,0.04590468174,0.06399499571,-0.04423351428,0.08767724646,0.03297044111,0.222621449,-0.1682793036,-0.0749736613,0.1019759335,-0.06776641851,0.2428379082,0.2553545956,0.03797441047,0.05626223351,-0.106955743,-0.1022625659,-0.007317742127,0.008712084909,0.1076906017,-0.08246278549,0.0145866431,-0.1391802486,0.07844477404,0.2729140247,-0.003523982345,-0.1640237191,-0.02248839173,0.01755719161,-0.1386620795,-0.04707544593,0.1123365027,0.06183201327,0.04843974784,-0.03794149218,-0.270571846,-0.06359061658,0.02891002506,0.158683036,0.1696702759,0.08871973905,-0.03967783541,0.2315451907,0.1469933895,0.0186263095,0.06694644856,-0.1852377192,-0.4260144742,0.1324051839,-0.0194774251,0.08713657277,0.2133383371,0.1696963798,-0.3041097384,0.103732616,-0.02741497479,-0.02667908899,0.06981107865,-0.07430374425,-0.1492245314,0.2024748551,-0.03938242863,-0.1621143568,0.1269964161,-0.1135984919,-0.16258886,-0.1257322251,0.03248693207,-0.1309080197,-0.2551183354,-0.03026067627,-0.05241669358,-0.06150725105,-0.1051703355,-0.09483686602
-0.09158072673,0.07926335935,0.0144199348,-0.01237101378,-0.02369600688,-0.07051967443,0.03594640538,0.04683934797,0.1318240776,-0.17644541,0.0390162686,-0.01559628185,-0.2064034234,0.072152917,-0.2237359144,0.07165022707,-0.08623133803,0.06329595437,-0.2703557086,0.162845563,-0.1434627556,0.05696355675,0.2052520173,-0.3087261574,-0.02926547886,0.1203523478,0.06741940961,0.08163383227,0.003262238082,-0.3097733352,0.08291584857,0.03444973095,-0.02863355886,-0.1467159856,0.07930839352,-0.02218100731,0.07300052451,0.009489906941,0.009480266345,0.2865853467,-0.1747211695,0.2608715422,-0.1986271993,0.124117325,0.2404737755,-0.1297917188,-0.05581315842,-0.3817606783,-0.1402027912,0.1448216078,-0.1805740316,-0.145859974,-0.02899245863,0.1441514429,-0.1993347569,-0.02485681738,-0.002103540193,-0.08237532485,-0.2510057024,-0.1657789433,-0.04815832391,-0.002711933625,-0.06851094456,-0.2142306047,0.02940923714,-0.04531004992,-0.06087648347,0.0924654241,-0.354307951,0.09982870846,-0.00662178417,-0.04986034457,-0.2766660211,-0.093938279,0.1041342672,0.08433555176,0.07680366654,0.0690052134,0.04374390164,-0.111841256,0.2318883348,0.1265717911,-0.1399073022,-0.1268746038
0.1547615627,0.07600631022,-0.155443413,-0.04324249422,-0.1250603834,-0.1308220268,-0.0455081636,-0.09233628155,0.143257108,-0.2892642897,0.1236644933,0.1104721622,-0.07062356912,-0.1264808029,0.3543597667,-0.150116846,-0.09513708465,-0.06947044898,-0.2582469665,0.2288124556,-0.004399857864,0.003113248908,-0.2248901726,0.07988218027,-0.05662634388,-0.1161189485,0.06589929322,-0.05949587746,0.1385022909,0.1019037083,-0.0770566053,0.0004437402544,-0.04121159302,-0.04172144439,-0.1573529519,0.1962240026,0.1916368323,-0.07579164266,-0.01013390535,-0.2021469528,-0.1387401839,0.01112222464,0.2536297506,0.00564666794,0.2111970933,-0.01367433574,0.09161424481,-0.2154967289,0.05670973541,-0.108029939,0.005404682714,0.03724030673,-0.07080947124,-0.09896284646,0.2599763418,-0.02877719527,-0.06841774089,0.04317349175,-0.22943393,0.2326026979,-0.2030077914,-0.04284568624,0.01618017826,0.002208713471,0.1676861712,-0.0885073972,0.1011059835,-0.1557752984,-0.08560220049,-0.02168307924,0.005181071738,-0.05846756336,0.2087564138,0.05441629605,0.03188083893,-0.06256316263,0.02151215041,0.06566891406,0.4230148751,-0.07411840981,-0.04715029051,0.06752446436,-0.09857965691,0.05332944374
0.1194973091,-0.2441625937,-0.09424359981,0.1622208243,-0.2234781489,-0.0557899434,-0.17316535,0.06595153399,0.000357328376,-0.06590311949,0.2557513547,0.1869801323,0.1768843517,-0.08700549087,0.3876312999,0.06142726682,0.08673723678,0.09472239323,-0.03579547572,-0.04507478875,-0.1407637818,-0.06275079321,-0.01748480697,0.1426179948,0.1370407463,0.1292762862,0.01478214999,0.0596538574,0.02979499465,0.06988795767,-0.0473154088,-0.05842767691,0.09513476381,-0.08047456367,-0.1005400775,-0.08374744955,0.2013347376,0.0831841744,0.08647218698,0.01657518991,-0.2583319802,-0.1327884255,-0.01564472867,-0.008589334462,0.08569522817,0.2188628671,0.2237152087,-0.2129215975,0.1429327904,0.06304842721,-0.1656723259,-0.1401376341,-0.1213360596,0.1588449837,0.03126891414,0.1749405788,0.2054904517,-0.1148694297,-0.05110694643,-0.06655696459,-0.1591716534,0.0833543381,-0.1331862765,-0.08609886224,0.05182491077,-0.1977857029,0.1107804163,-0.2405505644,0.1579579279,-0.01562726963,0.1549466312,0.07592356971,0.2602061266,-0.09300259552,0.4376250652,0.1653925462,-0.0785989637,0.1382202647,0.2685670617,0.08907598958,0.1566938892,0.06212267316,-0.1641011281,0.08602706064
-0.01524721341,-0.2022937336,0.07669191586,-0.123172739,0.2006809897,-0.1607483032,0.2025900804,-0.08987574634,-0.3433691542,0.1828393481,0.04123169819,-0.1645796787,0.09623374748,0.1873042045,0.03219779943,-0.2482242101,-0.1524534257,-0.1443515363,0.1763183547,0.1681356617,-0.329629949,0.03396531213,0.06755283245,0.03110233771,0.1137907227,-0.1815395964,-0.1082300979,-0.2020875834,0.07812912616,-0.3286108886,0.08062948393,-0.05030104289,0.1499984904,0.1211928958,-0.1677186988,0.3528887228,-0.0229228451,-0.07310542015,-0.03598655882,-0.09738005627,0.03116014996,0.07459196758,0.01558583174,0.01661705696,-0.005370396263,0.1964219399,0.1363155217,-0.2174106585,0.01161344246,-0.2887276941,0.1709096949,-0.04136456258,-0.1508600394,-0.02022835565,0.07580305287,-0.2309295366,0.1095013379,0.07923542029,-0.1122328563,0.01630510422,0.2932696708,0.06130542192,-0.08119167361,0.02487634872,-0.2190838411,0.09276921196,-0.2535510489,-0.1123944389,-0.2116829254,-0.0281626584,0.1105168904,-0.117312749,-0.05002216301,0.1533851724,0.4460881879,-0.05889360367,0.02116675943,-0.04355074327,-0.0686350406,0.1045140977,0.02387007938,-0.1121222618,-0.00864728498,0.00937009778
-0.0230015158,0.02657322529,0.08411575954,0.0280948087,0.01203091824,0.06627654187,0.03030915424,-0.07577833925,-0.1631389138,-0.08927867074,-0.1805822106,-0.1055943104,0.0326087638,0.1650080158,-0.1407682786,-0.05870889164,-0.2555999116,-0.08361122794,0.09055193222,0.1122493117,-0.1012095863,-0.04224388122,-0.09648088121,-0.09144945171,0.05658511773,0.1504380609,0.1555832668,0.08899735112,-0.0877920842,-0.5997091943,0.003900759398,0.03019248057,0.05430358793,-0.1336537759,0.01715412425,0.09076940786,-0.00213385339,-7.309719555e-005,0.09831875831,-0.1112612659,-0.08996446301,0.1934910004,0.1062454368,0.1593811824,0.02068984237,0.00533114275,-0.09284485566,-0.306678559,-0.03482031344,-0.06588368132,0.0695508299,-0.001167339612,-0.1976682127,-0.0846829103,-0.1914581,-0.03719275205,0.09220058348,-0.09007309901,-0.02178530807,-0.1633666499,0.02515424839,0.06999036306,0.1985670711,0.02090785475,0.01822350413,0.04739231859,-0.3648760788,0.2720720049,-0.01342933143,-0.08128777938,-0.003431563839,-0.0125763225,-0.04036454651,0.02191991243,0.3051039272,-0.05708669329,-0.07853216187,-0.1747116585,-0.3263149452,0.06491940658,0.2522972049,0.1923529682,0.05102737494,-0.0193507033
0.1600548363,-0.07766638606,-0.2093630703,-0.0553941527,0.04579509073,-0.1635040468,-0.1118272055,0.2427975071,0.1218889872,-0.2242277382,0.1617841614,-0.0682946644,-0.07824436698,-0.06535853867,0.298817098,-0.08642309237,0.04114628098,0.1116643407,0.1179635664,-0.1509424098,0.05955426966,-0.009759606143,0.04615862008,0.08456744282,0.07872568248,0.2853492791,0.1144221614,-0.2197246683,0.06826803182,0.1026625697,0.1365996965,-0.05724462927,0.1342074301,-0.2779395306,-0.08466396202,0.1141943307,0.04032578817,-0.09389870342,0.1696228621,0.005566325367,-0.1282861649,-0.1667145358,0.41224779,0.04203682141,-0.01789148825,-0.09609684666,0.2203837399,0.04108246951,-0.002394836518,0.02820914375,-0.2588878705,0.1389869975,0.1627717191,-0.08561455316,0.0510991906,0.3954279613,-0.05829115491,-0.02596765561,0.1803026494,-0.2776335162,-0.09903593251,0.05023010277,-0.25081699,0.00193121494,0.1083237579,0.1099406067,0.2049900626,0.118406177,0.08593694134,-0.1048333744,0.1488634189,0.4277916692,0.3246744629,-0.1629770668,-0.05662907268,0.000364734474,-0.002939926404,0.007582268136,-0.05692006255,0.1378722966,-0.2774892776,-0.100255751,-0.172912129,0.07542350807
-0.01176924166,0.05439958144,-0.06529412794,-0.1424900574,0.03531283458,0.05364574757,0.2265593299,-0.1460679847,0.1429762325,0.1032265177,-0.02897739663,0.04234021015,-0.1665907151,-0.1819994124,-0.00124851113,-0.1267062667,-0.1772376021,-0.1045935117,-0.2372269188,0.1544072004,0.1387147406,-0.1824787129,0.2406752148,-0.04193406504,-0.1174982817,-0.1758036283,0.01188216702,-0.1952870056,0.03072151658,-0.2204358916,0.06505203116,-0.1321932024,-0.06223663984,0.3027128954,0.0780965374,0.2063359795,-0.01855644702,-0.08075797113,-0.1180854598,0.03952111736,0.1448117518,0.07643796755,-0.07840137508,-0.06660071373,-0.1484727277,-0.1573141485,-0.4044310637,0.1459566226,0.1273376761,-0.1484854547,-0.01577249264,0.1489024986,-0.02547854202,-0.2215276756,0.0593410447,-0.09686505292,-0.2087250529,0.2428152836,0.006515129474,0.1024620377,0.05814809541,0.1283691122,0.06473487542,-0.01758484582,0.190484355,-0.1773352551,-0.02559948157,-0.09215109041,-0.271978165,0.2409198522,-0.2689877722,0.07174835336,-0.2957548865,0.06270728431,-0.1782371024,-0.07251684014,0.0802918178,0.1823126559,-0.2094722375,-0.3372940498,0.1669982299,0.04003076976,-0.05551435448,0.05828044278
-0.1265862981,0.07937021769,-0.02523541808,0.1088221012,0.01586372825,-0.08252741225,-0.04571907619,0.03248732473,-0.08444046998,0.06952207917,0.1787481536,-0.04087534958,0.09342736823,0.05602511964,-0.1965010124,-0.137306424,-0.009654431369,0.08140647272,-0.1779127722,0.2483983956,-0.01409225421,0.06377582531,-0.04225815651,-0.02145374852,0.0004491991426,-0.08744501735,0.1281536173,-0.1488931149,0.03435573577,0.354586863,0.07182261113,0.1710831262,0.06581105746,-0.08049492606,0.03462321887,-0.1109803735,-0.002273989749,0.1610463832,0.07155918364,0.0514803928,-0.09925825793,0.08191169821,-0.04929788311,-0.01832135425,0.2380713817,0.1139121342,-0.3658980105,-0.08064989173,0.02906759003,-0.2894422682,-0.1483280981,0.3188548808,0.05120654848,-0.05579449293,-0.03645064855,0.1018412672,0.1869813439,0.2943045137,0.04185641211,0.106645523,0.03035377178,0.2471651513,0.0294509229,-0.1345936088,-0.1834661666,-0.1135864276,0.006752980545,0.1403913669,-0.01818969587,-0.2249527846,-0.2315324856,-0.1125426162,-0.5120504812,0.1304690638,0.01553439368,0.05627653084,-0.07620218103,-0.09800774774,-0.1287554315,-0.07546017907,-0.100543688,-0.07497977548,0.05848165018,0.00118485617
-0.1870737233,0.01918963699,-0.01950828065,0.08328633372,0.2963944028,-0.05572876438,-0.005654358813,-0.1295063769,-0.1548392757,-0.03367733835,0.2180138446,-0.04490581007,0.06285180801,0.3430395441,-0.1494135952,0.008869044587,0.005285988134,0.01556143576,0.2377274308,0.09919095233,0.08119910995,-0.1505089477,0.105058661,0.02456299514,-0.1016045487,-0.1722848671,-0.1723258745,-0.02224468535,0.08718836306,-0.2755764898,0.08043113458,-0.1329981093,0.08184459152,0.1758150732,-0.1042659631,0.1498782598,-0.02807851284,-0.3737423578,0.1050084101,-0.01544444404,0.06440708433,0.15286235,0.1302899346,0.04351172614,0.07443978931,0.079106086,0.06503930522,-0.05299219175,0.0155207617,-0.1362760906,0.1656913493,0.2439678094,-0.08909288028,-0.02471012964,-0.07339230555,0.08686175641,0.07503814935,0.3559679196,0.03358067729,-0.05913039877,0.1339931304,0.2146038101,-0.04346867178,0.0007181302291,-0.1174537711,0.180360694,-0.4111059473,0.198530984,0.008483734146,0.02208852991,-0.1220545906,-0.002871718034,-0.0365566789,0.05769558151,-0.1156833874,-0.3052875041,-0.05169425741,-0.1708819049,-0.1512965299,0.113917469,0.1208910356,-0.1375205056,0.1328948768,0.0851037032
-0.03440249026,0.05217140828,0.0750503167,-0.02203466769,0.01064661489,-0.005643528621,-0.03523186879,0.3938233093,-0.2787652717,0.0946162473,-0.0232386556,-0.1102508392,-0.2867678137,-0.08036432489,0.3009336029,-0.09255674772,0.1359717511,-0.02311630741,0.1708267166,-0.06631060629,0.01177697707,-0.1680026673,0.1946184766,-0.06209307321,0.01357582073,-0.07855064428,-0.09194640886,-0.06406632698,0.07875627238,0.08332660368,-0.01757918068,-0.1686759819,0.02949657142,-0.1428061172,0.2739133207,0.2708845285,0.08708391644,-0.2451948865,0.05608393454,0.04596780124,-0.04829207699,0.0344078296,0.1066470437,-0.1240832976,-0.1931880788,-0.03031778397,0.01859147241,-0.05231364318,0.1018508751,-0.01439385226,0.02590611867,0.1516905374,0.1373610417,0.1266071035,-0.05604245188,0.06490952814,-0.2179508469,0.07206530075,0.1256203341,-0.002016154453,0.06384928573,0.06519877225,-0.0194965181,-0.04501870826,-0.06996901789,0.08033416791,0.1761272172,-0.02694066958,0.2567789152,0.04485814794,-0.01871996387,0.08273763302,-0.2026671889,0.1294732436,-0.3532761917,-0.05696685966,0.08122646233,-0.09297416731,0.03733147636,0.02508059459,-0.4139201503,-0.110318001,-0.04408073478,0.007896892905
0.1065321222,-0.04466137352,0.03182661814,0.1151772169,-0.1988461624,-0.102213347,0.1617243914,0.1122555786,0.02108625401,-0.1013477906,0.08432976994,0.2269677193,-0.0498352278,-0.04775511784,0.006862038919,0.02658774459,-0.09704715344,0.08730073288,-0.1658912564,0.2103849639,-0.1337983771,0.0912901739,-0.1888796893,-0.05168610403,0.1498920488,0.216710394,0.2142822224,0.1002146273,-0.1627771168,0.3383306225,-0.04008592564,0.2116072705,-0.1570903606,-0.1776873003,0.07503082953,-0.05868060468,-0.03003813474,0.09629891218,-0.2024192294,0.008809785327,0.04142787028,-0.03121369392,-0.09563898499,-0.1292922521,0.09406663966,-0.102778358,-0.04122183721,-0.03801114663,-0.1222069816,-0.115155287,-0.2151947611,-0.5827979284,-0.03169236253,0.09009420354,0.05080191638,-0.0757892375,0.1711410705,-0.06432652925,0.08499194116,0.1433795659,-0.1533781074,-0.08117912266,0.1041278864,0.1474778539,0.03944666955,-0.2010752521,0.1236014265,-0.1005784555,-0.1632525263,-0.1576743812,0.01052748627,-0.1628825611,8.25991574e-005,-0.09351323081,0.1861587371,0.1032777325,-0.043271497,-0.03470134355,0.1387502251,-0.1859973769,-0.1886437377,0.2627796945,0.1068770565,-0.07115306278
-0.0899109655,-0.3177186517,-0.1834018387,0.0388530836,0.139520475,-0.1236147388,-0.00593691366,-0.1597549598,0.07661379916,0.1109369389,0.01240749554,0.04713656382,0.01554470532,0.1867166,0.1333190372,0.2869640525,-0.09483185636,0.1620981628,0.06360826583,0.0584021357,0.1707468962,0.1362147227,0.05333654844,0.068764637,-0.004646564039,0.08722243253,0.01971318902,0.1969190132,-0.08878144228,-0.06751759482,0.1092826113,0.1090205387,-0.1477763567,0.04172668769,0.04472274807,-0.2533793371,-0.088718716,0.04446514745,0.09546878914,0.1418247481,0.1906623492,0.1286281636,0.1304254534,0.09550058169,-0.1037119713,0.03818279701,-0.07235658565,0.01180622161,0.0186263041,-0.1660458536,-0.218226936,0.2976684033,-0.02297052587,0.04903307124,-0.1547421,-0.07807357476,0.02543474941,-0.1138785972,-0.02124846943,0.02074177612,-0.0514971796,-0.06489237623,0.06689991214,0.02122893546,0.06947174466,0.04664119884,-0.2278546737,0.03610518206,0.04567040868,-0.04517526299,-0.1336366478,-0.2665693612,-0.03216693299,-0.1280760239,0.2866827182,0.1223503666,0.04535572144,-0.1754160571,-0.07305846382,0.1090863884,-0.04302880554,0.09597881587,-0.1677681659,-0.07563117045
-0.01995353583,-0.03053063137,0.006337329223,-0.02473654005,0.2944908273,-0.006572484073,0.1157293249,0.02253607334,-0.003103482168,-0.2124745671,-0.1189364109,-0.02309367967,0.2000754551,-0.0706363873,-0.2260062052,-0.37583456,-0.147863769,0.1395598053,-0.07286135192,0.3432827142,-0.261075482,0.0144832297,-0.1733392607,-0.02086613542,0.1678213996,0.002164459754,-0.04543937274,-0.02868942652,-0.0968567565,-0.02886979472,-0.269782587,0.07305325641,0.156920262,0.2341892624,0.04157798069,0.250460388,-0.1678388169,-0.1353038352,0.02384744104,-0.0319170435,-0.1556370006,-0.1163309944,-0.1325400488,-0.08009951535,0.004100408055,-0.0189987047,0.03406965436,-0.3590971754,0.009677489287,-0.1992785354,0.02776846857,0.04943653752,-0.0688642753,0.02273797707,0.1010360412,-0.2900532277,0.2681799835,0.2573379195,0.002421624936,-0.0531930871,0.1422292643,0.08341390744,0.2569641151,-0.1603670351,-0.1980622097,-0.1030355749,-0.2301161879,-0.04094521117,-0.1938750704,-0.04919972154,-0.1553124908,-0.1374219222,-0.3049541349,0.1016351269,0.06412072178,-0.1119851496,-0.09755942823,-0.04988829094,-0.002790973419,0.04083115714,0.193444612,-0.08850024783,0.05142575185,0.03028438379
0.03083950881,-0.004770484864,-0.01326771199,-0.05243614504,-0.03043309562,-0.05820706754,0.05025774491,-0.2444625665,0.1578087794,0.04274718249,-0.1330023733,0.07637390103,-0.2621922472,0.1961228272,0.008180774713,0.1968776026,0.1706120345,0.04378383649,-0.07827836266,0.03541283536,-0.08542189091,-0.1226596817,0.04116470146,0.3464125599,0.1618045529,-0.004461034014,-0.1179023073,0.2901255904,0.1730838365,-0.2568719736,0.04729807221,-0.09190785775,0.1678852427,0.09415369243,-0.09646924995,0.03302261495,0.1991437589,0.3187337783,-0.1292366739,-0.07534194887,-0.154112789,0.08920805819,0.04616020806,-0.1639457056,-0.06098143043,0.09039041854,-0.07339804361,-0.4772369835,0.004511642811,-0.2327210505,0.1533214623,-0.1141150254,-0.1057483605,0.07089151849,-0.01320554381,0.1568603734,-0.3130781769,-0.1497354494,0.05565227861,0.1668723808,-0.1406250021,-0.1156489818,-0.07571064416,-0.4235766792,0.1752129921,0.110352376,-0.01256692948,0.03436297702,-0.2247522741,0.1722926264,0.2377141376,0.02705460705,0.1217666877,-0.1362893135,0.1087512349,0.3175225973,-0.03653025212,-0.04509004991,0.4317798055,-0.1983237721,0.2072191874,-0.01244589245,-0.1520532711,-0.09599366604
-0.1255285568,0.2573762009,-0.1943353969,0.0149872902,0.06859727857,-0.02454529271,0.02065706489,-0.2326931202,0.08334357549,0.1437394646,0.2624938809,0.09347555984,-0.0835295766,-0.03354361088,0.2045953175,-0.0206549779,0.00833059629,0.09999679262,-0.03766926781,-0.04105776924,0.02255633317,-0.1177531395,-0.200668452,0.3056717105,0.01029600643,-0.1084514764,-0.0250538213,0.08781119751,-0.09513045241,-0.1733064038,-0.1046744442,-0.2363253792,-0.1791025553,0.2249579776,0.06244641687,0.243962603,0.176836615,-0.0442424049,-0.1754311868,-0.138095179,-0.08774574103,-0.08098786311,0.0852849149,-0.08157316238,0.09871904168,-0.04152120195,0.1803641476,0.2275064963,-0.03541472301,0.1397568077,0.1333249622,0.2148172671,0.0365108804,-0.03444954169,0.2909031104,-0.1357974495,-0.2784582239,0.09804028974,-0.05598952721,0.1636882775,0.2150777254,0.03245228846,-0.2272296987,0.05209041701,-0.0460485924,-0.1586402175,-0.1961246613,-0.4072849342,-0.05847140048,0.08492014433,0.08764536537,-0.01837769337,0.249164845,0.1469742609,-0.163438477,-0.2417825624,0.01106713285,0.1728743666,0.05654783565,0.05493234836,0.09348057396,-0.01683749135,0.01430590198,-0.02250149765
-0.08940796402,0.0829050533,0.1581748301,0.06190740424,-0.08651979123,-0.148492591,0.009371540374,0.04573746968,0.04083941445,0.2341375212,-0.1431632498,0.03285612432,-0.01281303046,0.2293447283,-0.0176181778,0.1353602609,0.1837025255,0.01266303698,-0.1143958196,-0.2850070168,-0.05231662007,0.24114384,0.1387410951,0.1818974623,0.04539220153,0.001787839461,-0.09146731467,0.2987693042,-0.08964891578,0.2280717639,0.1528273614,0.1328245914,0.1100837459,-0.0006722478104,0.112452543,-0.2267212602,0.02356936888,0.3693701553,-7.628368661e-005,0.04525292154,0.1715964796,0.06803796647,-0.03123734095,0.07107004996,0.09538626544,0.03266045354,-0.2330000211,0.2865402393,0.0849411311,0.07414856905,-0.03995630097,-0.1358698293,0.02732641797,0.1195096425,-0.0112303813,0.1604471847,0.05778516818,-0.04629433817,0.05913438375,0.04590105551,0.1001136482,-0.04133480173,0.06623711582,-0.1544002272,0.1842161294,0.4019171699,0.2301773341,0.1083289373,0.1283115157,-0.009665781007,-0.02777006794,0.1901681322,-0.09396829346,0.02505821835,-0.01231507727,0.05117180975,0.1511926517,0.06652778465,0.01230757753,-0.1594210629,0.167105008,0.1168962638,-0.02193416868,0.06453529619
-0.01353515909,0.184109453,-0.06889085428,0.03974971915,0.1263102705,-0.118448265,0.1294066621,-0.08498110323,-0.007894789671,-0.1308783405,-0.01411496631,-0.0282617138,0.2282682585,-0.08042155469,-0.1877724364,-0.01043258718,0.04349542882,0.2339273401,-0.01392259814,0.1127381877,-0.05020491545,0.4788168275,-0.3506057985,0.1390283758,-0.06501565118,0.0367616127,0.07182484276,-0.2448346004,0.04855100827,0.7588118041,-0.09232618019,0.1623006104,-0.0340546493,0.05448955523,-0.1210461722,-0.2402192199,-0.08048177406,-0.1540235305,-0.176298966,-0.01631158866,0.01056750535,0.1028803593,0.198112121,0.1300445984,-0.1947634668,-0.1110212822,-0.131806766,0.512095825,-0.1700322847,0.05927006142,-0.2425614356,0.2676933268,0.02540382858,0.1286932785,0.2793705914,-0.04525092808,0.1326092414,0.2964572307,-0.1611162325,0.08240094326,-0.2050827313,-0.05347836837,0.05780499464,-0.04214799258,0.02270035728,-0.1437861936,-0.05722716331,-0.2881853729,-0.08813026336,-0.2191550058,-0.1717869505,-0.2104703714,-0.4146035205,-0.04466453441,-0.1656631244,-0.1333621328,0.1489982248,-0.04626832113,-0.1964015174,0.007431718181,0.1976415277,0.03524713724,0.08301625393,0.1641774997
0.158253704,0.1606627652,-0.1657698276,0.1963388936,-0.07055601452,-0.1582844589,-0.116371549,0.03720443106,0.1038598723,-0.181149783,-0.03055579004,-0.1109813977,-0.111514166,0.0207120807,-0.07603197232,0.1100001864,-0.3242491014,0.1419764713,-0.1204112508,-0.005775963519,0.1163095069,-0.2948374206,0.1229011836,-0.3515106256,-0.006038808136,0.1476650953,0.002672846368,-0.05321751711,-0.08357827881,0.1942627054,-0.01833077541,0.01820940359,0.12468877,-0.2189529301,-0.07349802467,-0.1695958714,0.06575036089,0.01386338567,-0.04566895833,0.1081141601,-0.1803896639,0.1709539719,-0.0747542332,0.08102740428,0.105367533,-0.02912421898,0.002516739617,-0.196177524,-0.001071537859,0.04971488595,-0.1689712011,-0.1645063906,-0.07494285139,0.1692900781,-0.02198308787,-0.1087166618,0.1070570692,0.04023069476,-0.1721554898,0.03942064118,0.008479997154,0.07843587363,0.04219088568,-0.2165857202,-0.1586765693,-0.08069063276,0.2055708492,0.197461202,-0.1645047153,-0.2038814424,-0.1693298021,-0.0108167527,-0.1452347165,0.179703125,-0.06790160578,0.009261487549,-0.1588893861,0.1242212324,0.07521701667,0.2327455919,0.07380130972,-0.1116974726,0.05093336787,0.1365227442
0.04589971154,-0.04158162493,0.2433205421,-0.1478553815,-0.137645706,0.003849246926,-0.2513855052,0.352495463,-0.1020190136,0.03844346484,0.02281242854,0.1399289384,-0.1605743461,-0.008923182183,0.04623502905,0.2900252845,0.0901584912,0.02588113424,0.005221791013,-0.1484775082,0.4417414124,0.1328312512,0.06620020939,-0.08997219696,0.04204349508,-0.1234116906,-0.04663420005,0.08009225034,-0.009797731733,0.1920017882,-0.07756942002,-0.07255492561,0.07649744873,-0.07708421162,0.2164275513,-0.23060511,0.1861348113,-0.130489928,0.07622194587,0.1587451956,0.2827532275,-0.07522843836,0.06169746394,-0.1214859258,-0.1079000711,0.04767954307,0.07261585234,0.231372184,0.06667587454,0.350698661,0.1602891603,-0.1250983025,0.0719662476,0.06478213616,0.01291316472,0.1080452151,-0.08428624909,0.1468103438,0.1402401184,0.06031296074,0.09210771297,0.02389035621,-0.136861948,0.07830457183,0.0519717121,0.02545915557,0.1478924503,0.08282719112,0.03166773854,0.1097937301,0.02587525597,0.02420555934,-0.03174525266,-0.07113471133,-0.1324426687,0.01776021527,-0.0258037354,-0.009680225084,-0.06365774104,0.2135936016,-0.1459960225,0.1681983606,-0.1203176784,0.03128779462
0.140005226,0.09007833297,-0.04764320774,0.1650710514,-0.03667765428,0.2017910705,-0.1353809315,-0.1678772535,-0.0413800439,0.00303987803,0.1066717256,-0.01868801505,-0.1699689862,0.007210680536,0.0942347269,0.1122156308,-0.3549986258,-0.007134006325,-0.3668796285,0.4161064268,0.1063946125,-0.1495432434,0.1298100034,-0.2508459533,-0.07127469487,-0.1453114645,0.01994353727,-0.2032555901,0.1132352604,-0.1092260037,-0.05881179333,-0.09329513341,0.04472637455,-0.06688827579,0.09952751166,-0.02626670583,-0.005719780629,0.03458316123,0.1306485373,-0.1203448524,0.07932144908,-0.006544300461,-0.03982409239,-0.1096628184,0.1237351778,0.1838954497,-0.1671759326,-0.124629015,-0.03472735094,0.08466644247,-0.08857292516,0.01308615967,-0.04172528648,-0.03318336042,0.03664823455,-0.2746990377,0.1029401493,0.1994090855,-0.1953581808,0.1676423231,-0.007113721311,0.200142862,0.01356521011,-0.03259312127,-0.2167916959,-0.0961845681,-0.07312479009,0.2168760431,-0.1666326243,0.1941459922,0.08112860047,-0.1960987022,0.07926220979,0.1029021789,-0.2490166718,-0.1215766453,0.0008714129281,-0.0510736193,-0.03504097995,-0.110840811,0.1098034286,0.04562678127,-0.1738897925,0.03375249808
-0.1206376162,-0.4004364804,-0.1288489859,-0.003444741204,0.03205750065,0.08126411084,-0.05187364736,-0.1040431009,0.1757951412,-0.02389323018,0.02136393472,-0.1156301342,0.1943521071,-0.09336318775,0.1095728054,-0.1026048131,-0.009850022563,0.0606220244,-0.1403925422,0.1511069746,-0.4888834699,-0.1828917572,-0.02241254556,-0.0002518974731,0.02745648937,0.0449022479,-0.09832403268,0.05217313948,-0.09026211766,0.1177440205,0.1087973934,0.07866119711,0.03766414184,-0.1104445372,-0.1136933347,-0.01412956264,0.1050907232,0.246973716,0.07936087018,-0.07137068724,-0.1009135903,0.03300476605,-0.05995001157,-0.06482790428,0.1728895565,0.03074972992,0.1671538234,-0.4468950211,0.127386993,-0.2165632789,-0.3676380945,-0.05988098278,-0.03167803619,0.05921913732,-0.1913550734,0.2967199571,0.2644801157,-0.02031319158,0.2989759246,-0.1563793608,-0.1017238093,0.002747658145,-0.1447795427,0.0838044502,-0.129067941,-0.07340286596,-0.04177171922,-0.05712527656,0.04371195902,-0.07213934319,0.0841122151,0.1337010775,0.002739639411,0.1651765147,0.5794869153,-0.04303599107,0.02081132041,0.1067279804,0.0939893396,-0.09817083473,0.2356301482,0.1665840718,-0.005184908336,0.1062688303
0.03300786395,0.110332789,0.2167677372,-0.09759296026,-0.07375221602,-0.1793374676,0.08706058368,0.1551523457,0.1834334595,0.1658969992,-0.05620900405,0.1865842181,-0.01616199352,0.07224570492,0.002095437698,-0.1090071424,0.0725929665,0.111700936,0.1537175671,-0.1244795726,-0.04795704375,0.06646905289,-0.1523500404,0.176468532,-0.05670519476,0.05924072799,-0.1341599809,0.2308211398,-0.2087565527,-0.2292341009,0.08206097821,0.1673470286,-0.3359911935,0.07947240666,0.0815405669,0.06814575058,-0.006009981505,-0.003255987536,-0.03698237635,-0.06025947929,0.1104694308,-0.1474327751,-0.3106941748,-0.09004061298,0.09548294696,-0.1058457532,-0.02023574111,0.2822124568,-0.09087876516,-0.04999759989,0.2740052739,-0.09883306333,0.03513498059,0.003608880394,0.08032266586,0.1453116935,-0.09275068746,0.06348724067,0.2287632413,0.1989217921,-0.04880839961,-0.2335162718,0.1268635336,0.1522466138,0.2197432268,0.2069682888,0.2434294364,-0.06918191443,0.1257557741,-0.06871243983,-0.09078839121,-0.1051672569,0.1453815121,-0.01757574908,-0.1043612608,0.1223924842,-0.01054554844,-0.1763814412,0.09341543268,0.2236822818,-0.1007474942,0.1919589458,-0.1168752338,-0.0682201885
-0.1665048058,-0.05388896449,-0.08648173644,0.009140858268,0.02639788745,0.141154976,-0.06950582249,0.06627674858,0.05124898295,-0.04944752671,0.09787777227,0.07509392539,-0.2206522695,-0.03012696538,-0.2770441512,0.3924811897,-0.2264979566,-0.0500560355,-0.3080934792,0.4856345827,0.1994907041,0.2111187426,0.005758982512,-0.198883227,-0.1074289799,0.03759757584,0.1301874679,0.05566595845,-0.01228828491,-0.03679368074,-0.1250333433,-0.1483803001,0.1049728206,0.205953931,0.06644996742,-0.06366245033,-0.09023427386,-0.1339914269,-0.05956975668,-0.03445973326,0.0180585801,0.1941392441,-0.04887719423,0.1208142335,0.06712943165,0.001819467325,-0.1334921015,-0.08522735903,-0.01484177093,0.01601274587,-0.1871443084,-0.2874251398,-0.1981941708,-0.06798324623,-0.1375638673,-0.1367158403,0.3693011104,0.006451559598,-0.3145119988,0.06771086558,0.09373872798,-0.08187268972,-0.0682045074,0.03727962946,-0.0993451458,-0.2359669382,-0.08360462202,0.1548776683,-0.3657117931,-0.06613878517,-0.209320549,-0.2922512173,-0.2059383859,-0.1006626152,0.05077072238,-0.04665780332,-0.03780956295,-0.1666923406,-0.1538305162,-0.3168691624,0.2205320342,0.1194141896,0.1065688581,0.1346664893
-0.2514957468,0.02115312316,0.09838528712,0.07179359903,0.00510132109,0.1660047323,-0.01424324768,-0.0489583456,-0.01570890389,0.2090444699,-0.07086936289,-0.1102921109,0.09644894094,0.004270408203,0.01790889439,0.3344904017,0.04165559958,-0.1224219122,-0.2001705492,0.3225657421,-0.249161332,0.06989169967,-0.003831789676,0.1904243282,0.02573492554,-0.1422066379,-0.05642948028,0.2000818731,0.1254728662,-0.1449242615,0.1077185091,-0.02224813193,0.001396675119,0.1021684316,-0.01269817011,-0.1801921265,0.1194668603,-0.1665886959,-0.05957807929,0.07277877475,0.0136101072,0.1507029837,-0.02173331326,-0.1993871771,-0.1763882824,-0.0146197141,-0.2725382064,-0.2443290764,0.1470731808,-0.1532231,-0.1339040398,0.1704502913,0.05755241122,0.07411097777,-0.03631472828,0.05524371108,0.02349419682,0.1053285397,0.1052043224,-0.06704552699,0.1378243286,0.01223790919,0.002719033696,0.03384991048,-0.04535238147,0.02552723783,-0.1689511829,-0.04602107554,0.04381597002,-0.05081725203,-0.08588125394,-0.3154720839,-0.09365645656,0.001925537543,0.2700112883,0.01285469032,0.01852158483,0.07937027202,-0.003977857572,-0.2768298329,0.01155071454,-0.03870166666,0.09777986634,-0.004085140418
0.02348311157,-0.0222130347,0.09369550539,0.108938432,-0.1781840609,0.07644837999,0.07941278401,-0.06191132913,0.383528833,0.004517271642,0.04693373055,0.1606530749,-0.0357649166,-0.1200041705,-0.1657701557,0.1738166746,-0.2563357309,0.01579325871,-0.3206559959,0.5330208515,-0.02007488003,0.08309058667,-0.1396309225,-0.1878911714,-0.1149727005,-0.0573493995,0.03182846291,0.1738042367,-0.02396402736,0.2519457897,-0.002206259708,0.2691464687,-0.03021269671,-0.01023848977,-0.05574505165,0.0611070233,-0.1303085932,0.1918037149,0.08180598137,-0.01119345187,-0.04574830882,0.1722320014,-0.2672648202,0.1025087207,0.01713075165,0.04978332183,-0.06878555865,-0.04297012238,-0.1133443598,0.02193625923,-0.1711269413,0.03646239715,0.02527943931,0.04246560186,0.01072359908,0.1497581589,0.01113021447,0.1877162129,-0.004978588241,0.1540816996,-0.2018492312,0.003645502873,0.09975569592,-0.0152746936,-0.02491034945,-0.2743814937,-0.009833232342,-0.162438887,-0.2763379266,-0.1264728704,-0.1354829882,-0.222518083,-0.2609036619,0.09137617717,-0.02009532189,-0.00190309894,0.005760643449,-0.1187174266,0.2816177082,-0.177651013,0.357912984,0.03793249285,-0.06555818068,-0.08838548225
0.01365438682,0.02364587702,0.1715139658,-0.03559794118,-0.01865604736,0.01907187217,-0.1335356057,-0.0301621119,0.05395349105,0.1390187041,-0.08971783856,-0.004352630095,0.05130804523,0.1560063815,-0.049877124,0.2266147463,0.06132660984,0.007673601889,-0.06370052182,0.125017252,-0.09904350465,0.1708576297,0.06434568012,0.02080970221,-0.01348688372,-0.09106585437,0.01071345273,-0.09550779563,-0.09059706486,-0.3770388623,0.04424264448,0.01011221538,0.09815274454,-0.05901523855,-0.02611183136,0.09197074594,0.3153526963,-0.02022525007,-0.004451564524,0.2122843736,-0.004032454941,-0.1675328542,-0.1625085951,0.03612538205,0.05991599642,0.1333738528,0.1473044392,-0.1890354445,0.1151966257,-0.1947012567,-0.1724761848,0.0166703113,0.07909651082,-0.02298264197,-0.1612097738,0.3059749748,0.1461057447,0.07887040037,0.1173398319,0.06613152756,0.2715614775,-0.03502022074,0.03065108212,-0.2345713312,0.02003120638,-0.03314233326,-0.264587864,-0.01001861555,0.1895970846,0.2384881698,0.05565598698,-0.0576243311,-0.2884680453,-0.09286572918,0.2187341934,0.08060242064,0.0822848134,-0.1443780681,-0.1058202971,0.1270951246,0.4248550903,-0.1607830025,-0.02583757871,0.103208917
-0.04948713314,0.007750593907,0.009245373858,0.05864056327,0.1628426972,0.1445857887,-0.1441461004,-0.1643741224,0.02638512081,0.1318173135,0.1097546995,-0.1259934134,0.08597777352,-0.1072770326,0.06861520697,0.4455296846,-0.03117123336,0.1235872715,-0.03779065145,-0.08827550554,-0.1760367925,-0.01093507176,-0.2227295331,0.07182810402,-0.02038786025,0.0980454213,0.0325418279,-0.004853023428,0.1226244721,0.1978518966,-0.05842741515,-0.007701162532,0.07013650255,-0.1058339562,0.0571093773,-0.1095383952,-0.1631707548,-0.07261925058,0.002689407982,0.1329987799,0.03739047337,-0.04478815476,0.104384597,0.06917882617,-0.104353415,0.0345537744,-0.09154900103,0.04431895368,-0.1221911281,-0.1071415964,-0.3599305281,-0.06670693854,-0.06887142844,0.07122393761,-0.1685419694,0.242366319,0.1280443917,-0.04483889761,-0.1450739402,0.006991462522,-0.1230778856,0.03803045833,0.00508245387,0.2198452218,-0.2111004569,-0.3284304402,-0.2431938056,-0.1499673058,0.1195057817,0.06382748668,0.07420257575,-0.1384105974,-0.1434179386,-0.1559332465,0.1512332229,-0.1159919995,0.05251047421,0.06196331081,-0.1918544988,-0.04333159741,0.2530654591,-0.1881133952,0.1305728686,0.1461100215
-0.07469433725,0.2039170434,-0.1028346958,-0.1829904861,0.02953648985,-0.09389174651,-0.0347130219,0.09530346735,0.06892684183,-0.3611468684,-0.09537111703,0.1955290664,-0.1054435135,-0.2479234323,-0.01446916349,-0.4871339771,0.1877797109,0.1090058846,-0.02129784515,0.09061859165,-0.1869436068,-0.378005743,0.01328552478,0.1207853685,-0.0602778003,0.1695403632,0.03114523286,-0.06360369813,-0.08343683461,0.3651986763,-0.106068691,-0.1481302103,-0.200171437,-0.01549624965,-0.1232050187,0.3468426271,-0.024593166,0.07217659764,0.06169501691,-0.2065594162,-0.06690001156,0.001822129635,-0.08450973552,-0.04594364241,0.1786662696,-0.05683297698,-0.1068700001,-0.1628098025,0.09359415427,0.04420977842,-0.06555698875,-0.3435144623,0.02893060351,-0.2157987597,0.260103056,-0.2004784335,0.06680151394,-0.05717126746,0.09891737483,0.05323339226,-0.06442106223,-0.01862240537,0.05648630258,0.130362482,0.03358859278,0.06706915902,0.2965081712,-0.2192756382,-0.02609862477,-0.1302029423,0.06883031247,0.2402962255,0.06174991767,-0.03804418644,-0.2368240526,-0.08815076219,0.08443684185,0.2420418813,0.3511835748,-0.02231778865,-0.1898200605,0.02744944945,-0.09960410597,-0.1227132297
-0.03162857359,0.155346515,-0.1257735653,0.140656689,0.01132948132,-0.1045452933,0.006428673581,-0.09833628719,0.265141348,-0.4278040116,0.1622083309,0.1213605641,0.379397684,0.0744415579,-0.2147403308,-0.3352999329,-0.2080789091,0.1453411567,0.09283566935,0.1606321944,0.1601684763,-0.09583296536,-0.2864928221,-0.2279074109,-0.1317313511,-0.07950103171,-0.1731294911,-0.05358665668,-0.0007322605581,-0.0121345506,0.02287906002,0.2126520591,0.0501994356,0.221599031,0.07147106414,0.2032623258,-0.01586859534,-0.1688815897,0.02790219457,0.2668845786,-0.1027673643,-0.1003814707,0.08519645007,-0.04480217309,0.03961647637,0.1895401578,-0.08823361679,0.190299074,-0.09798844183,-0.1648048089,0.114675275,0.1169482502,0.1862477552,0.1360659946,-0.00855430641,-0.2395803441,0.2874828952,0.1411910322,-0.1048885493,0.06604108603,0.109329604,0.1276753123,-0.07754180063,0.05745710449,0.09020167745,-0.09172047508,0.165845169,0.05007909398,-0.2976341692,-0.2019680277,-0.105517055,-0.04094931005,0.04593567627,-0.1196642431,0.05212970076,-0.003702531759,0.15043627,0.025021912,-0.01659693597,0.09827692982,-0.1467783161,-0.01407542421,0.04035951868,0.04509418122
-0.04988129934,-0.2375558633,0.06101031109,-0.1010936806,0.03948396267,-0.06086114449,0.1800559055,0.05274045555,0.08529500005,0.2468291178,-0.02531406405,-0.07550900952,-0.03536689975,0.06924921219,-0.03823496084,-0.1409251995,0.199931535,-0.1351433488,0.05281814663,-0.1686869347,-0.3062314859,-0.1135853715,0.3003058798,0.103017827,-0.05422512965,-0.05197576734,-0.2379258957,0.3355549848,-0.07640618008,-0.2833423576,-0.08083443265,-0.2069927181,-0.1047788298,0.1799238302,-0.1717650331,0.1638384026,0.07750490184,0.154139346,-0.07510138283,-0.02566762508,-0.07579356187,0.001365163325,-0.02523702379,-0.08107091595,-0.06620035851,0.03372991743,0.08155254347,-0.2620017674,0.1292710128,-0.1297112349,-0.01369516052,0.2991777383,0.09187285339,0.1082654878,0.08286277917,0.08581511572,-0.002123820629,-0.2771183301,0.2986812148,0.04527245622,0.1108890297,0.1405535899,-0.01230263798,-0.3299191857,-0.1492391326,0.1482934117,0.2151846739,-0.06480586805,0.09670321479,0.230011643,-0.09382158122,0.1281692377,0.1757260519,-0.09254794736,0.3378029257,0.2874054663,0.02939757679,0.1224881092,0.2047885057,0.05409129989,0.1850579717,0.003897831176,-0.07889476327,0.1331720448
0.01663904407,0.09258516182,-0.2668803433,-0.1983126435,0.2002988196,-0.008191143432,-0.1127288319,0.4884529917,-0.01215328111,0.1452162744,-0.1415970845,-0.1145140324,-0.07709198672,0.1023557866,0.1409453657,-0.09998643049,0.2915285516,0.03304663226,0.01384722451,-0.3367642653,0.0426511525,-0.2622070039,0.3031519229,-0.02222276968,-0.05430302689,0.1798986166,0.04177203727,-0.2394960762,-0.0492679614,0.09587550538,0.09487270025,-0.3558642705,-0.07241356641,-0.1354909596,0.07986344678,0.06961111596,0.08650629722,-0.1939614118,0.1360934922,-0.1134214029,0.135373762,-0.1302054939,0.1104927547,-0.05243145448,-0.2304848129,0.03283582111,0.2622979305,0.09514594687,0.200496224,0.1053587314,-0.09704409505,0.2225532206,0.08764022725,0.01565166451,-0.1717400024,0.07451041276,-0.1254502115,-0.1688699304,0.3616726291,-0.06252202413,0.1149709737,0.02071310105,-0.09139402378,0.04654106691,-0.0176401652,0.07182849431,0.1772488131,0.1238145114,0.1079659346,0.1129048398,0.06675980545,0.01545405317,0.1922068494,0.07279283034,-0.2973591385,-0.05463547294,-0.008796538191,0.09775346367,-0.1896536521,-0.1222690121,-0.5900433035,-0.1608825796,-0.1358430943,-0.02356965015
0.04789811589,-0.2382392099,-0.166341456,0.110373798,-0.05976819722,-0.1460649393,0.3013100733,0.1483768665,-0.05327684479,-0.05175733623,0.1276703366,-0.1602829631,-0.1273162868,0.05780103172,0.127057433,-0.4041836143,-0.1709229987,0.006815704568,0.01444988854,-0.2145621351,0.3308877847,-0.1031352921,-0.1018111721,-0.07234664639,0.07055636276,0.1435009744,0.1130682258,0.001099035991,-0.04871388163,0.3551614944,0.09556238383,-0.05477501604,-0.08182280176,0.01727567613,0.1287018309,0.1048311522,-0.2072884863,-0.009335925524,0.1758399037,-0.06817554505,0.07293396875,-0.03757606063,0.02235514566,-0.1312688654,0.07153034051,0.09256640144,0.3203387089,-0.03381271103,-0.1548544088,0.07611830708,0.05696530138,0.2063771758,-0.06767211578,-0.01497973459,-0.1026438606,0.103064305,0.06496304068,-0.06966150387,0.2708280017,-0.007088587671,-0.03576791872,0.08412054353,0.04337641474,0.01872378574,-0.2648287586,0.1568247431,0.1988505689,0.1988435942,0.09047093232,-0.1956756663,0.07097329579,0.1774931872,0.2077654523,0.1354513883,0.01897327496,-0.1854825755,0.01658283417,0.01342937626,-0.1369915387,0.2887066227,-0.01697744655,0.0346989392,0.009746390875,-0.008954408702
-0.08660487372,0.03390016551,0.06721674788,-0.07765462812,-0.07293081426,0.2251305293,-0.1247621183,-0.02565231654,-0.03648078753,-0.0287809336,-0.1086146535,0.1751253737,-0.3632958622,-0.0009596154606,0.1039436236,0.1666783814,-0.314279084,-0.1830814462,-0.1884241399,0.1835522465,0.184687768,0.035902016,0.3018173889,-0.2908848611,0.08180729651,0.04421469797,-0.1025133466,0.173839326,-0.09376064849,-0.2273966483,-0.07434874311,-0.2167361676,0.1016718148,-0.2354481748,0.2013552749,-0.1003300345,0.1485520037,-0.04678077717,0.1563083918,-0.1469557834,0.04937905899,0.02443922509,-0.07626416175,-0.02656979174,-0.09022975478,-0.07462479922,0.001519668662,-0.04377101576,0.03014518165,0.20982868,0.01242494433,-0.3416882156,-0.02190798289,-0.007224650489,-0.0141162441,-0.2001594124,-0.1173035393,-0.2535946591,-0.1976955866,0.08873895146,0.2194808136,-0.09550486639,0.01443488039,-0.212029814,-0.002395834624,-0.1349983082,0.03915871456,0.1362287608,-0.3510375997,0.0719110993,-0.08191430367,0.07053440321,-0.1211572048,0.007216341313,-0.2124595519,0.1065251852,-0.01855722161,0.1521548749,-0.1345330381,-0.04743083231,0.1278739551,-0.03038791501,-0.1336410068,-0.08847485392
-0.1356226082,-0.1154107745,-0.005478413718,0.1416223758,0.05970302581,0.1263252118,0.1907529625,-0.2799517231,0.006792941042,-0.1242428549,0.1511830995,-0.03768608244,-0.08464618945,-0.1020637622,0.0946763698,-0.1635953634,-0.2269885881,-0.1555431019,-0.2116269498,0.2852233309,-0.2162762289,0.007227161508,0.03053429395,0.1035655723,-0.03168964892,0.05346064601,0.04751138192,0.1531563739,0.02642608591,-0.3362390832,0.06286248939,0.04706386593,0.08721349818,0.2462658256,-0.1866394911,0.1203848799,0.09200089365,-0.07305994659,-0.07714751036,-0.06308000947,-0.1612635191,0.1812642898,0.1024628036,-0.1251042275,0.03675656302,0.09412194988,-0.006027337239,-0.3375067852,-0.06454191346,-0.0124396204,0.216088854,0.00508086007,-0.007411225984,0.02938816251,0.0810753993,-0.2079609539,-0.04688202371,0.03942525838,-0.2215287086,0.1836474003,0.1487004573,0.06018801086,0.1254830604,-0.1309261046,-0.1318226219,-0.1875467575,-0.3857990344,-0.06482480108,-0.109947288,0.02754387857,0.1210299842,-0.04075409935,-0.03572131954,0.08684266524,0.161134996,0.02492825395,0.02311887057,0.02457194057,0.3154054259,-0.1503064819,0.470835608,0.07715231451,0.01332544608,-0.1330465922
0.1012222913,0.1804684402,-0.103794089,0.1334186335,-0.1126831592,-0.01104934045,-0.1167944851,-0.07567378667,0.09358407547,-0.2272631175,0.02115170209,-0.02188845086,-0.0006237861486,0.05070425186,-0.03560350285,0.01403983624,-0.03231320551,-0.08719455355,-0.2529693253,0.2615677496,0.2040901972,-0.1210601108,0.1184355581,-0.1812610645,0.01415407956,-0.04597480211,0.1491223921,-0.1419336744,-0.1080058142,0.04549401938,-0.1091753592,-0.2232207649,-0.009391793477,0.007368053697,0.01028753742,0.1600657193,0.1042128757,0.02748718194,0.140331916,0.005739527576,-0.02728579891,-0.1410084731,-0.1728565486,0.03783621299,0.05107386012,-0.07501609411,-0.02425775952,-0.2786935732,0.163962915,0.02551078621,-0.08045641877,-0.1832096075,-0.03288437907,-0.1654797453,0.05030133616,-0.2325294051,0.0867484844,0.4055311808,-0.03739186921,0.04590292166,0.01784001538,-0.1468670638,0.004335074877,0.1361618447,0.03298760098,0.1418568406,0.09619159892,0.3305901172,-0.3891217632,0.02172148912,-0.07126995383,-0.1456360883,0.04623275932,-0.1004318433,-0.3021552223,-0.1981983927,0.1047462976,-0.05852607585,0.2778173247,-0.0396355731,-0.085910557,0.0792559474,-0.04039352078,0.08871659921
-0.03156077986,0.09039339925,-0.03980017613,0.05241932212,-0.07852964121,0.01981324084,0.03571880022,-0.0154303572,0.08348766621,0.2059957986,-0.06031702924,0.1389765178,0.2872173613,-0.09443008572,-0.2423307402,-0.2498800061,0.002179333244,-0.06082310061,0.3410542181,0.1544667952,-0.0750683226,0.1104283559,-0.03004495649,0.02047906888,0.04033828534,0.1061767327,0.07595045634,0.0565206814,-0.09961997073,-0.4394297299,-0.01803430039,0.1071210177,0.01151847994,-0.009682675792,0.008929931999,0.1896103161,0.1944543737,0.2398434155,-0.2024915117,-0.07213293863,-0.09298031611,-0.007944021028,-0.2050574327,0.1367180664,-0.1841894338,0.03658917739,0.2790090956,-0.1233415153,-0.1033090142,-0.1775728821,0.3490404752,-0.2409231245,-0.2087667089,-0.02019286547,0.2152326274,-0.1981808314,-0.1268949342,-0.1746438732,-0.1803868104,-0.01320868495,0.262086617,-0.1922907437,0.1743884943,0.210848617,0.1893405028,0.09038888682,-0.102886922,0.1536364778,0.03084049788,-0.06708697887,0.2536424539,-0.09225047455,-0.1247775885,-0.001021640101,0.2186719559,-0.07984268448,-0.1264656562,-0.0298789214,0.02022820394,0.03855438059,0.02690002041,0.1402292587,-0.1489702578,-0.04515057686
-0.1110142661,0.06881328031,0.05985367223,-0.00921761667,-0.1301714406,0.00748401805,0.02826766794,-0.03611829973,-0.1061857509,0.3289294384,0.02809091308,-0.103097404,0.04546786129,0.2407444085,-0.08992518538,0.04509004632,0.3661667933,-0.1355445004,0.1551132873,-0.1635881734,-0.1076898531,0.007292198486,0.2183574722,0.141665871,0.01511022016,-0.06193485471,-0.05416040864,0.1736558831,0.02683673339,-0.1608547004,0.1477286441,-0.1808952258,0.02545685849,0.002799289904,-0.1320927451,0.0872942998,0.1958783517,-0.09724755272,0.08454175664,0.006247664547,0.04218537379,-0.02499454812,-0.1741800093,0.1230458811,-0.108228334,0.145668423,0.2430980144,0.09540390295,-0.05708761702,0.05841898879,0.3326443479,-0.1651097106,0.009373837215,-0.08890042473,0.1729266192,0.1373002849,-0.2972743978,-0.2275829002,0.1420347376,-0.01100564483,0.01808162328,-0.1252244889,-0.1951697754,0.02974940435,0.1031087178,0.09601975937,0.05719066722,-0.1164934916,0.2226182802,0.2423718755,0.07872929097,0.2016011989,0.19215078,-0.01515724027,0.05320478172,0.1286355802,0.0131607711,0.08582542289,0.01445211222,0.07510699414,-0.09484890864,-0.02023726985,0.08256831787,0.09484273526
0.04132320748,-0.04017657211,-0.01178286462,0.1168338963,0.01387004311,0.06260239308,0.08723119745,-0.2155292935,-0.1420851949,-0.3394619929,0.216230525,-0.1043877909,0.1061154722,-0.3369158037,0.04844235853,-0.2282728175,-0.1678087837,0.1042160335,0.05234490086,0.1450388587,-0.07273699122,-0.2740653038,0.03074664671,0.1416014725,-0.05301689076,-0.1671677921,0.06576055744,-0.06605545895,-0.07051949917,-0.2244566072,-0.06542847885,-0.1636394057,0.1787704287,0.0467977448,-0.08572071367,0.01937810205,-0.04215332391,-0.0239917022,0.03901906416,-0.1185423604,-0.2219561336,-0.02048413714,0.1782301174,-0.0159125768,0.1613216425,0.08077767899,0.1692277755,-0.3398318311,-0.2005897692,-0.1908143113,-0.1114042539,0.06830192097,-0.1887243054,-0.009646085279,-0.05519361233,-0.2605165195,-0.1698377418,0.03373850699,-0.07474712613,0.262360873,0.003455648794,-0.07099490695,0.02897803498,-0.0909542746,-0.07134419718,-0.1136672895,-0.2984878815,-0.2155833225,-0.1858832906,0.1105812117,0.08061338385,0.08353349446,0.27895327,0.006643790919,0.2128860811,-0.04691424238,0.0197401053,0.2197387916,0.2438577317,-0.007307791307,0.3217889781,-0.111884159,0.1484262125,0.005192624731
-0.190521978,0.141896111,0.06773105805,0.00554183542,0.05434235839,0.07447621845,-0.03263823561,0.04024010615,-0.03662427773,-0.02358453871,-0.1096067167,0.05393311784,-0.1278357085,0.2865368421,0.04132296568,-0.05377023868,-0.1530206463,0.03652500245,-0.03576136376,0.02620829746,0.1620922883,-0.07550024367,0.1074597563,-0.04457689018,0.1072952824,0.02050463122,0.01235861353,-0.02589740939,0.08221939219,-0.3587659977,0.04781697166,-0.2117993136,-0.06940072567,-0.04259008571,0.1335310953,-0.005567841296,0.232166554,-0.1258382287,-0.0249520194,-0.00722533484,-0.04055728455,0.1074149402,-0.02150526174,-0.1149763234,-0.151415159,0.05580678735,-0.1600973627,-0.5051815095,0.03081862146,-0.2140322056,-0.01166097686,-0.4435468031,-0.06146944143,-0.09203158368,-0.1623678597,0.007292483625,0.1147301165,0.2205287264,0.05696577245,-0.1339254764,0.1112750585,0.1723340679,0.04809167465,0.002225118598,0.08308942376,0.1245940571,-0.2002677363,0.1424153972,-0.2496191159,-0.03223524044,0.1029708086,0.111343394,-0.1467743594,0.09058042287,-0.09532017197,0.1002878321,-0.1235570409,-0.07615817747,0.08502646893,0.3373893498,-0.2263708534,-0.0783147329,-0.2403650901,-0.05737468632
-0.12325368,0.03072896846,-0.004560803481,0.1702825111,-0.08575598383,0.02971666446,0.1054381742,-0.1139240141,0.1695861776,-0.1862352062,-0.2269978036,0.2884723114,-0.06903915613,0.04175303055,-0.0490257491,0.310295934,-0.1427173532,-0.1050113295,-0.1245353706,0.1682770791,0.01003623559,0.0805849402,0.07614783822,-0.1501987472,0.05633597544,-0.01916945381,0.1383253868,0.2357970109,-0.1361630601,-0.2531151931,0.04898237441,0.2485623375,-0.1062906963,0.04838195928,0.03936284913,-0.1450513516,-0.1047322969,0.2975498881,0.01028805837,0.06954027636,0.1257809152,0.06827166804,-0.3443669515,0.03976278141,0.0409107095,-0.08182510802,-0.1671706368,-0.1958245355,0.09740671409,-0.1953336579,0.06258560071,-0.08083066641,0.167418648,0.09640181548,0.1708907393,0.2212362431,-0.004231215463,-0.05980102661,-0.05287341816,-0.09246361732,-0.1122406251,-0.1266188518,0.106747562,-0.2273199455,0.1842619879,0.05452074882,0.1241310307,-0.09479125965,-0.205567096,-0.07427263433,-0.0126410489,0.1442548135,-0.1352060702,0.04904337278,-0.04324572385,0.3372157444,-0.1159147276,0.01481951811,0.2914635807,0.1777740359,0.04196408379,0.09923883066,0.1636177725,-0.05827598184
0.0866819829,0.009791237746,0.03846530403,0.01407066764,0.2001556884,0.09660472158,-0.01657700332,0.08310463161,0.1293051774,0.132240753,-0.2072912563,-0.08723320059,-0.1014144427,-0.1496978186,-0.0816841252,-0.08180132547,-0.06337822811,-0.08264384111,-0.2611774,-0.1797646428,0.07046123523,-0.2063521652,0.111763422,0.05696706264,0.09679208943,-0.05961563737,-0.06544365521,-0.03803957273,0.00939540952,-0.1264141319,-0.2237592173,0.04406284503,-0.007810674986,0.2020188385,-0.03100761888,0.1437598094,0.01201383027,0.02780981064,0.03264408862,0.08867809243,0.197299358,-0.005054271037,0.01590674818,0.06627266391,-0.2086382709,0.01556209858,-0.01712466349,0.1862939171,0.2566217742,-0.1573205951,0.1501088683,0.1596784045,0.1476874994,-0.04470199396,0.1666707307,-0.1457599326,-0.3112967279,-0.1277013607,-0.06850577564,-0.09560600868,0.07483639648,0.005535558262,0.1754534769,-0.1549007553,-0.04569260311,-0.1300826398,-0.01321809834,-0.05912197395,0.1746520885,0.08096727167,-0.1474910544,0.2188189183,-0.3141260075,0.2012386885,-0.2273585289,-0.009339323301,0.08089765155,0.1865929676,0.003811060573,-0.3074490282,-0.2331699565,-0.2175472177,-0.03508277184,0.01676487055
0.083163117,0.2187548681,-0.06525874217,-0.05887617944,0.1765884935,0.09029022926,0.0932144987,-0.07069696803,-0.05527272422,-0.108542963,0.05902194709,0.09244313715,-0.07137075573,-0.110538059,-0.09904479176,0.125352657,-0.1642795445,0.06454338955,-0.03962207707,0.1933056347,-0.0667896011,0.08841349997,-0.415493989,0.05931020682,-0.03188545953,-0.05437752497,0.1614128672,-0.05878549422,-0.06081487802,0.6116581028,0.02361833848,-0.03991314703,-0.0602362487,0.04396741363,0.09161752172,-0.04600793862,-0.1260920981,-0.1781166682,0.01546193374,-0.08512243205,-0.02866928343,0.04032034107,0.1815286983,0.07996254393,0.1437232811,-0.04013250757,-0.1457180245,-0.05749471009,0.09493337258,0.1055286678,-0.3048979469,0.265298041,-0.1585621483,-0.04712866908,-0.1504018783,-0.1978121474,0.2275720538,0.1647429577,0.129204348,-0.00634288138,0.03468470244,-0.05910876596,0.1976308723,0.03058869574,-0.2710209855,-0.2431367017,0.1249363827,0.001343676769,-0.1631879024,-0.221260832,-0.1329500315,-0.2561362956,-0.2168086262,0.03410368076,0.1328612355,-0.2126156847,0.09155406768,-0.1398295065,-0.1996004909,-0.1609975233,0.1579431793,0.01297193977,0.1204657736,0.1352312995
0.1482485709,0.1480856103,0.1251546215,0.09899150019,-0.1328180664,0.1879701751,-0.21964097,-0.07259434249,0.05531417517,0.1076658895,-0.01669129916,0.09210311468,0.06820200816,0.001477164378,0.1890903862,0.2357317913,0.04405233395,0.2702453055,0.06586011375,-0.1710672215,0.1226746515,0.122209805,-0.1663620045,-0.0906298644,0.1062112591,0.1039996077,0.1321639696,0.02183573777,-0.1672957379,0.761590363,-0.04267201436,0.2543253081,-0.002304553473,-0.1301465077,0.05940313003,-0.3678035366,-0.05513738061,0.08618078991,0.1894949628,0.129362427,0.01777558246,-0.09782338555,0.03263271317,0.01947196188,0.0644858872,-0.04300589898,0.01524463276,0.2807395014,-0.1036473589,0.5265159308,-0.2980954286,0.03195778708,-0.0004310705321,0.1307380217,-0.1508706653,0.2310291509,-0.03346097252,0.02486947242,0.2031200537,0.1243724366,-0.3217570469,0.1244818138,0.001013508999,-0.205071373,-0.09359971253,-0.2274179656,0.08597594365,0.04069838137,-0.1517342968,-0.02320111381,0.04029628109,0.1621949127,0.08210236046,-0.03828025422,-0.3172977704,0.1664493656,-0.06217646254,0.08324029884,-0.1527354854,0.120423464,0.1035996894,0.03863348837,0.1596603745,-0.1027667119
-0.12187042,-0.0183156493,0.1337001626,0.08703130809,-0.01564346696,0.1172381609,0.08989246364,0.1851480579,-0.2702770895,0.1857928109,-0.1451485997,-0.01644263054,-0.1141135218,0.2206417044,-0.1195669934,0.05356510687,0.0359351108,-0.1289205351,-0.02087774172,-0.2186449713,0.1165319494,-0.0511522292,0.4520117239,-0.2212168539,0.06264259528,-0.04423516773,-0.08051425184,-0.0370850325,-0.1422809203,-0.05835865275,0.08299155879,-0.267245302,0.1266233551,-0.0799204297,0.05766487552,-0.02418509256,0.1113364819,-0.1248824765,-0.009639833111,-0.1781055141,0.140057229,0.1535358426,0.05949108273,-0.1176445822,-0.2912081656,-0.1116609512,-0.01046076045,0.03365116338,-0.02374660887,0.02968834761,0.03170722288,-0.1937274106,0.1164166402,0.08725572357,-0.1822608544,-0.07513353802,-0.05113406203,-0.03694886086,0.1719891059,-0.005393994805,0.1636442812,0.01184494059,0.0829733493,-0.09582835859,-0.08274853546,0.3832746278,0.272932846,0.151574056,0.07775098322,-0.08206426613,0.125391555,-0.03092681691,-0.09043098085,0.02413346108,-0.158596068,-0.1602036077,0.0003292216985,-0.07636756712,-0.2839742006,0.07491005218,-0.3325718555,-0.05849821607,0.163914292,-0.10213554
0.0001492021743,0.07001949266,-0.01737151134,0.04450548146,0.00918968287,0.06261211468,-0.1115948629,-0.1495870278,0.04072033414,0.09414753868,-0.1750061605,-0.1530736569,-0.04679084323,0.1430838423,-0.1567183628,0.1724751969,0.2197781716,0.03005356705,-0.06897886869,-0.3499834854,0.06341861838,0.5160952533,-0.08593916988,0.1465138689,-0.01717666227,-0.03719036756,-0.04815305113,0.04784430834,0.03423651125,-0.08628424843,0.1557913621,0.1077239667,-0.2150372103,-0.1397643535,-0.001627828397,-0.2775313806,0.003201688321,0.04169705666,-0.1139777849,0.1148717425,0.07176972412,-0.2013926882,-0.1757072401,0.1326413876,-0.0006526787554,0.007906327816,-0.02730135904,0.2220541274,0.1704643952,0.285649971,0.1338529745,-0.1187495651,0.05294743009,-0.08412221518,0.1342089226,0.2636564709,0.1886645258,-0.2505892354,-0.01199261141,-0.2140133422,-0.2192061456,-0.1521641497,0.09799546655,-0.08322920041,0.1099067813,0.2661192749,0.1931292757,0.01879519417,0.3830431023,-0.06383016586,-0.003616003252,0.02408881747,-0.01246857421,-0.09310788137,0.01172432223,0.1822502907,0.1569380371,-0.006925005669,-0.1241993841,0.153223247,-0.1796917928,0.07918089478,-0.004160816338,0.08104548306
-0.1773864856,-0.02600914493,0.2713561862,0.04974282662,-0.04662508596,-0.02443524203,0.05748659889,0.2561762362,-0.04859094443,0.1672202566,-0.1698321595,-0.1265708826,-0.1119809152,-0.01413680397,-0.06783078765,-0.03557862772,0.09314890862,-0.1438347133,0.07080238375,-0.1562424418,0.113705462,0.1479770868,0.4264262943,-0.06384089107,0.1610583625,0.2231209946,0.0677719108,-0.006565021753,-0.07673885462,-0.1797380222,-0.02162898889,-0.08693184302,-0.01254290928,-0.1589758454,-0.04963578568,0.03612106096,0.05160714086,0.1818067545,-0.1125352391,-0.0760777656,0.1428548278,0.1594931283,-0.06418612973,-0.03784338093,-0.2147275269,-0.02264644475,0.006461625565,0.04930626247,-0.1543001244,-0.006770675862,0.2309369254,-0.168193999,0.04156739188,-0.161205161,0.09415749928,0.151530796,-0.1447796832,-0.1257710213,-0.04255628506,-0.1389473382,-0.06289319533,0.1534683126,0.006956912161,0.06008798389,0.06852289975,0.01175058911,0.233472437,0.155829656,0.1508122545,-0.07429978153,0.1612187269,0.3680515345,0.1092697978,0.09456938486,0.1619453527,0.06207061882,-0.1464757612,0.07889246626,-0.03767114465,0.107440072,-0.05931480887,0.04055498789,0.1641183945,0.09623482358
0.02359799177,0.1207924599,-0.06263822176,-0.01254066074,-0.1822590567,-0.2507868801,0.006409852316,-0.02963522098,-0.1136561137,0.1818129263,-0.141240692,0.02198505056,0.1289830611,0.1012772789,-0.1086023221,0.4182459195,-0.1508425128,-0.0642264332,0.01135994551,0.1605295892,-0.2123774294,0.2881606676,-0.2283101488,0.2344513763,-0.07112343886,-0.1929235494,0.07049620809,0.06579201492,0.04782229784,0.1078791874,0.1320588732,0.2368081112,-0.06469029261,-0.03120161937,0.1102346363,-0.2503115664,-0.03414891871,0.08222808925,-0.1223931314,0.08469853903,0.03725558903,0.1209771783,0.04795257973,-0.1218115928,0.02119735192,-0.1696581508,-0.3885871453,-0.01341380224,-0.1175548687,-0.001709358514,0.04355000125,0.1128334647,0.09252831752,0.04773429205,-0.01069262002,0.07252707412,-0.1361201976,0.204635336,0.05397265379,0.1062082866,-0.09138157373,-0.1485259549,-0.08064565938,-0.06856360246,0.2904240354,-0.09638081457,-0.04044314356,-0.09542936176,-0.1547771144,0.019392688,-0.05298227926,-0.01107505211,-0.04543547912,-0.2181923638,-0.02043436027,0.1001054065,0.009233670033,-0.2113241461,0.2967320179,-0.1674461095,0.02844138785,-0.05604995996,0.1559707042,0.09521855509
-0.004722420739,-0.07240474419,-0.0006070819616,-0.04042613235,-0.18575681,0.05170230848,-0.01863973123,-0.09673998788,0.07794442138,-0.1292386789,0.1162599097,0.01915271013,-0.131992845,-0.09938405386,0.05113600249,0.03526214559,0.004998365076,-0.1163651274,-0.1699378039,0.161878758,-0.1677860068,-0.2730855913,-0.004598098705,-0.0764572905,0.1777855692,-0.1254923241,0.05647489246,-0.04538342491,0.1134361361,-0.09571012363,-0.06716063468,-0.2276166007,0.2844326049,-0.04779295789,-0.1483201402,0.02110121784,0.01533766696,0.03502352002,0.02442615158,-0.1574922163,-0.01734253816,0.1557518285,0.2148300523,-0.02094434645,0.1342767232,0.2096317369,-0.1416706037,-0.5423780875,0.08800405964,0.07337844039,-0.07362995273,-0.01232329153,-0.06443452536,-0.1801865416,-0.1460801372,-0.1483342085,-0.1101374335,-0.08503525061,0.151211902,0.04002319132,-0.05103442584,0.1644604838,-0.02609736651,-0.02561402177,-0.1871025628,0.1071890971,0.1496086736,0.1018783885,-0.2182314499,-0.08510518467,0.06180356476,0.02834332703,-0.04152481244,0.06265135917,0.1676599185,-0.1039578951,0.1711267356,0.1817589439,0.2488277714,-0.06612648465,0.345632057,0.05106893712,-0.08471991719,-0.02549270068
0.1458737135,0.03550837883,-0.03756519217,0.2188633341,-0.03608536939,-0.08512876341,-0.2853129745,-0.04728317529,0.1715430334,-0.1581579977,-0.07930996306,0.09493774642,0.3545785525,0.1710997491,0.04606656898,0.3090439762,0.2609842061,0.201082164,0.01586429995,-0.01141930423,0.1349556681,0.09591749268,-0.09865386256,-0.09620124087,-0.1063019099,0.1245482702,0.0725595979,-0.08826238667,0.03116627423,0.3879855423,-0.06650295402,0.00187588609,-0.1778777845,-0.4211367615,0.1135657132,0.007717082794,0.1503481757,0.02786910834,-0.07887960063,0.08433174308,-0.2082074222,-0.2181192289,-0.1626845601,-0.06774057423,0.009011413024,0.1412116758,0.1425398803,-0.2939019793,-0.05809196412,-0.1583673664,-0.1969005354,-0.07887202244,0.1142962255,-0.0395977994,-0.1824982577,0.3492546162,0.1622638009,-0.1422557396,0.01192883003,-0.2565744255,-0.1962711817,-0.02210921027,-0.1474408903,0.1122501843,-0.1525256145,0.02281460943,0.06076274239,0.121587854,0.2442845245,-0.02715588466,-0.02092815378,0.1480031343,0.01170026845,0.1013535358,0.1605440448,-0.09861746837,-0.09238041928,-0.07182752936,0.1502609284,0.3881112739,-0.2171597224,-0.02144789429,0.05792771399,-0.09385012953
0.07014470433,0.08507875976,0.3644968309,-0.009541464599,-0.01075439292,-0.0243176537,0.1078259965,0.1533582225,-0.1326895031,0.03199969897,-0.07450646604,0.07090683877,-0.006649007122,0.3988516926,-0.178978567,0.2360575587,0.09193696211,0.0220569465,0.1241213368,0.1104179034,-0.1370475379,0.1947117548,0.1220308193,-0.03598758468,-0.1589503899,-0.1711539019,0.05866129574,0.03496813974,-0.08137050099,-0.3594398413,0.07051764804,-0.01953927951,-0.07058838021,-0.1822896533,0.02569661848,0.07170165739,0.05101794614,-0.0110685976,0.2405001135,0.1322323559,-0.0258629299,0.1837294149,-0.07229159258,-0.03857016943,-0.04481515583,-0.1525914199,-0.08613683431,-0.2829540288,-0.07081927457,-0.04840621302,0.02093967695,-0.04437195885,0.1398788548,-0.04594391342,-0.1675518807,0.04810931533,0.0220884158,-0.09917485739,0.07672708534,-0.01155756418,0.1215978777,0.01167939749,-0.05811095682,-0.1451954158,-0.222357496,0.0002472124778,0.007354852256,0.1862251027,-0.07355303343,-0.02718374978,-0.1308184371,-0.1927562079,-0.2413119151,0.01471682007,-0.02616228053,0.1950935207,-0.07084061814,-0.06224468505,-0.3379660239,0.1125055077,0.2513724076,0.06816089978,-0.1141754543,0.06968922324
0.09551560135,-0.1279327282,0.1916194096,0.02901382291,-0.05142747258,0.07582855523,-0.1238277123,-0.03300773256,0.0180191725,0.4341882444,-0.1019844321,-0.08412471608,-0.3109388198,-0.002261517624,-0.07102351271,0.3855485223,-0.1318750384,-0.05202725069,-0.3353437427,0.03929310551,-0.00885107247,0.2025718269,0.2911441581,-0.05110693691,-0.001820250728,0.03158404093,-0.1290984525,0.173970113,-0.1776253162,-0.2815423489,-0.01223334633,-0.09164344759,0.1212538644,0.00216361584,-0.05573080914,-0.0549820916,-0.06433544945,0.1333784085,-0.08036924592,0.06672198694,0.1237854802,0.1521630718,-0.07823671483,-0.1080038969,0.1146820393,0.1012603053,-0.2805883355,-0.3432333559,0.1428727712,-0.09828006857,-0.1669238291,0.1006569381,0.1468085664,-0.007609954037,-0.05944167652,0.09124957409,-0.104087523,0.07803280686,-0.1022319645,-0.09236699792,0.08069675669,0.05170328872,-0.1418434889,-0.4802849449,0.02235969143,0.09967049865,0.159226644,0.03520908978,-0.1378964095,0.1281978621,-0.1724957935,0.008244064602,-0.2989146481,-0.0473483929,-0.008739214133,0.07410833872,0.06287522588,-0.02694459955,0.1842328807,-0.2442531344,-0.03661097274,-0.02480175841,-0.144321138,0.1551064702
0.03596775885,-0.2538403288,0.02789920512,-0.1405285673,0.05260159944,-0.01356198258,0.255788272,-0.3642606173,0.0840053003,-0.02022290498,-0.0316670862,0.03566327361,-0.01005159941,-0.2846629468,-0.007556306045,-0.1385837876,-0.1134262887,-0.1709050889,-0.09888515261,0.1602351323,-0.298907318,-0.15435111,0.0841995477,0.1231457368,-0.01867825656,-0.01436473302,-0.1696607146,-0.05501361938,-0.04822997087,-0.4337809973,-0.03984486897,-0.01368392961,-0.08302477919,0.2457574771,-0.4411638432,0.08307970287,-0.0775894435,0.1152303088,-0.1609003309,-0.1418259869,-0.05508315833,0.001743571252,0.005285074051,0.01150837396,0.1594246122,-0.06319544711,0.1177292157,-0.2699323495,-0.07741746826,-0.2054275709,0.09527098422,-0.1649952316,-0.1129675769,0.02473493045,0.1331942548,-0.06368012581,0.138558911,0.003567313656,-0.09732134055,0.08564693538,0.003813082658,-0.02265578403,-0.002036329763,0.07527103368,0.09186810351,-0.02788018653,-0.2895147799,-0.1289686302,-0.1813900815,0.01842343587,0.1403042145,0.07376517133,-0.03467141614,0.1402806182,0.1913503643,0.2774761346,0.1500552725,0.1112845277,0.2755911571,-0.1500570146,0.4347335594,0.1042359541,-0.1083963429,0.1605627644
0.02741467702,0.2994534092,-0.02005107298,0.0222197868,-0.256385194,-0.1068734935,-0.265811174,-0.1290834615,-0.1285812194,-0.4642571796,0.06774103738,0.2428525075,0.2814241222,0.0534487063,0.03085716776,0.1075690543,0.1126452633,0.08581288575,0.1557043543,0.03010791219,0.1866874614,0.3240308359,-0.3096865205,-0.06380249801,0.002996933221,0.2756010148,0.07740354662,-0.1954445321,0.1383829954,0.110131547,0.05288255632,0.0570324181,-0.1213309054,0.05142447105,-0.07912313254,-0.1901428476,0.04569995492,-0.1370062761,-0.1849257096,-0.04637475803,0.03661736214,-0.04569258385,-0.01305445429,0.1707777481,-0.2182256194,-0.0199247741,0.03721930999,-0.1716329804,-0.004836701072,-0.1249949933,-0.1685133659,-0.3698759213,0.09211428639,0.1719153711,0.1011778084,0.1115095777,0.01219833196,0.02516327951,-0.2714518022,-0.0561447711,-0.2158646516,-0.05352652853,-0.1428348281,0.210398461,0.02966782822,-0.003100153873,-0.1685958525,-0.1609794853,-0.2553819705,-0.1898558929,-0.07777979917,0.09856889181,-0.2303907063,-0.1560621496,0.03536451458,-0.0007437357418,-0.1258758387,0.100699656,0.1459107028,-0.1080908437,-0.2783218158,-0.1491569217,-0.1002439285,0.07738863494
-0.02904881322,-0.1817868803,-0.0558701023,-0.09316992636,-0.01770458412,-0.07844613956,0.00783013591,-0.06526870502,0.1461583816,-0.1825145782,-0.09497637512,0.1857102606,-0.06791638309,-0.09588600927,0.08611858118,-0.3095102857,0.08867632727,0.0117979704,0.1498730098,0.1462354216,-0.07889073891,-0.06477163536,-0.04428510176,0.01791558885,0.06056664189,0.00707946307,0.07558443532,0.03115130175,0.1447007484,-0.5025563216,-0.1217974237,-0.08111480369,-0.1101160716,0.02440108145,0.003205240836,0.2328442157,-0.00901000566,0.007350106154,0.1052290167,-0.1801605647,-0.001307468661,-0.08162875425,-0.1421061138,0.1167385661,0.2329695635,-0.04092973584,0.09298096728,-0.1666419074,-0.09829034278,-0.001417067439,-0.03985336953,-0.3320434479,-0.002307013839,-0.03141015101,0.1645130973,0.08439856892,-0.1010874029,-0.1740631902,-6.102137751e-005,0.06927447611,-0.07032700026,-0.07163600521,0.0743361408,-0.03107042777,0.285438928,-0.02926219039,0.08898284916,-0.3031526543,0.08632085289,-0.05913934001,0.2933096421,0.1246709796,0.2127236611,-0.04780528749,0.2382244508,0.1944338336,-0.01840679096,0.09941365213,0.4478187858,0.08122280294,-0.01186573436,-0.07557929048,-0.006222384517,0.151330591
-0.1188605749,0.06817834069,0.04124027243,0.01342694721,-0.04440408192,0.1227332145,0.2368038297,-0.09961970187,0.1900985554,0.1024299364,-0.04121560161,0.09134603695,-0.03972850333,-0.2055055937,0.004159057505,0.2040964247,-0.2093536756,0.04047808707,-0.4405955768,0.3098925184,0.01955197,-0.09340705803,0.1536454878,-0.1093500172,-0.07074366565,0.03847581622,0.01983491604,0.07112292491,-0.154162924,-0.04499735141,0.09068945121,-0.04499621482,0.05021082786,0.0366814746,0.07747958583,0.049374247,-0.1646935792,0.093832243,-0.003743851543,0.1590062117,-0.008498484195,0.04941876877,-0.02587804705,0.06628040221,0.01682177954,0.01851948001,-0.1233719759,-0.1723886587,-0.1751207534,-0.1567508998,-0.3114314664,-0.09079724797,-0.01324535306,0.0567566414,-0.06054883053,0.0243436098,0.08941982331,-0.09799482497,0.03783084324,-0.03783431879,-0.01666772908,-0.02718896965,0.004825057489,0.07007781303,0.08361974769,0.005872394161,-0.1252793144,0.1716703924,-0.364046991,-0.1347988331,-0.03487243015,-0.4062593713,-0.1009259385,-0.1176026824,0.2124880677,-0.09066364849,0.07636002671,0.0359303148,-0.02540718465,-0.2093752051,0.1581002592,0.04655431168,-0.09617223804,0.1130829601
0.002850045961,-0.2730825507,-0.01607985634,0.07611035471,-0.06378821935,0.0860598835,0.09054024464,-0.3496782278,0.2390306705,-0.01283075929,-0.134513651,0.0625754692,0.01100913525,0.1694676781,-0.1052303147,0.04045382443,0.09785158824,0.08435156241,-0.01437275354,0.253912789,-0.3741804437,0.04532593675,-0.05785953807,0.1479966838,0.1310407753,0.1331496574,-0.09591269596,0.2198962638,0.09026445088,-0.2554509164,0.01781475125,-0.0190214134,0.1163564981,0.09521741009,-0.4128872438,0.06226858876,0.07840502688,0.3547046281,-0.1466080464,0.08310178048,0.05010500886,0.034657823,-0.09864135527,0.007515924177,0.0775531072,0.005645817358,-0.1728005637,-0.451724169,-0.130447921,-0.288577891,-0.1038218287,-0.07492753047,-0.09299895593,0.07082922972,0.0314210909,0.2748144269,0.05160247906,-0.1205106628,0.01231720917,-0.06627122735,-0.08535744621,0.06676099525,0.02745519371,-0.3835739698,0.07140586688,-0.02587587692,-0.0838093492,-0.1628028822,-0.1289641851,-0.08398808569,-0.05114410682,0.1194716727,-0.139744806,-0.06380185483,0.3071417425,0.3020215669,0.1209650163,0.07913517541,0.4584254544,0.09013450798,0.2581230922,-0.1174383375,-0.09320578207,-0.1442214298
0.1576002847,0.2791725341,0.01876586077,0.1370650589,-0.08103142459,-0.02406530191,-0.0550001576,-0.1323777731,0.1833225274,-0.1167274086,-0.1038161199,0.1778586269,0.0313774153,-0.1228733267,0.1602327432,0.2052614463,-0.1506959135,-0.09099025866,-0.07866092926,0.2006722646,0.4547363076,0.0895003493,0.13599784,-0.0507929752,-0.03236237245,0.08306643916,-0.004556458504,-0.0307633226,-0.008255678218,0.1281829742,0.0406501807,-0.1207144463,-0.2386189131,0.05442036472,-0.005896929128,0.02910494402,-0.05702911837,0.1945796308,0.02939365982,-0.02249361845,-0.07572606802,-0.007757280212,0.01035871383,-0.02075224554,0.1493075272,0.1127088611,0.08548845319,0.2386476176,-0.15540822,-0.02980892403,-0.1034520995,-0.3536053609,-0.0639421267,-0.02257228932,0.09008303851,0.1522423868,-0.08988149447,-0.02375218483,-0.2101875778,0.1108588494,-0.04945682055,-0.06483532412,-0.1503513685,0.04357018743,0.1933475958,-0.01779820329,-0.1505987165,-0.1523361986,-0.1706311973,0.1494465781,0.0802853332,0.008828978139,0.117816296,-0.02015892292,-0.3283492571,-0.07491557933,-0.08941619782,0.05892705626,0.09447067744,-0.1349149266,0.0141313467,-0.09396748672,-0.08947258592,-0.06736309469
0.007023890639,-0.0485612086,-0.1068260295,-0.03237933359,0.1451100251,-0.04702905686,-0.0414747831,-0.2754629548,0.02812511695,0.06594762964,-0.07623810319,0.01996709939,0.04984905305,-0.1976062128,-0.1378033625,0.03181448464,-0.2263575561,-0.01576001101,-0.1653859496,0.2791386674,0.02472981073,-0.210764413,-0.1634188861,-0.1452340697,0.08028010721,-0.04789971977,-0.01454394768,0.009718110572,0.08035917498,-0.0872466218,-0.1830081589,-0.2413935071,0.1761169859,0.2150942288,-0.01425864347,0.1676274056,0.04971948196,0.1118165462,-0.02519042581,-0.1441375039,-0.06573230915,-0.1538064146,0.02349803946,-0.03639048801,-0.07785297898,0.01062410539,0.07562795248,-0.1480699592,-0.06181139905,0.05801396731,-0.03659245544,0.02089139277,-0.2728797126,-0.09906088129,-0.1685953325,-0.1386004563,-0.1738818533,0.04770519264,-0.03119240298,0.1642068353,0.1464514201,0.188111793,-0.04849018339,0.04628576202,-0.2544164291,-0.2491337786,-0.2534351784,-0.02698127944,-0.2997330739,-0.008924675321,-0.01081094593,-0.2184888786,0.1476797121,0.07384613538,-0.02619766786,-0.08348569879,0.1629614976,0.09712720911,-0.08431850028,-0.2243115476,0.3888521848,-0.06861934737,0.0206397583,0.07024922467
0.1746280569,0.12037214,0.1744138525,-0.02338919953,0.181773212,-0.1381493939,-0.1037993155,0.2652913592,-0.2074102688,0.04234912787,0.03159224283,0.004450019298,-0.1913845877,0.2276790556,-0.1583733174,-0.01635714823,0.2318852236,0.06394655165,0.05245012727,-0.53083482,0.1142101272,0.05929740667,0.191919495,-0.08551561742,0.06502888303,0.02039070638,-0.06009792085,-0.1803210423,0.0420886775,-0.01895168453,0.06293292935,0.06762067195,0.002958417808,-0.2140685656,0.1557362966,-0.05845806002,0.08606746687,0.1562770552,0.2068055473,-0.06631649799,0.05189373696,-0.0643348397,-0.08924818015,-0.02557953955,-0.06725904463,0.02741390922,0.02403080538,0.2962310798,0.0153900133,0.03329908881,0.2247627811,-0.1224322683,0.1503117877,-0.07663415045,0.02031495716,0.05937758742,0.1825448412,-0.05977987591,0.1440501897,-0.1391306426,-0.04791944001,0.01266059882,0.04674472758,0.08597521729,-0.006775608652,0.4641555562,0.08229783988,0.3139120617,0.2628279564,-0.1461819555,-0.05892535268,-0.03281701529,-0.066375844,0.1366514897,-0.09192600053,-0.1359000163,-0.1408081077,-0.02145329797,-0.3191152047,0.1907943872,-0.0002524531433,0.2068098192,-0.04741667648,0.02185845985
-0.08150176857,0.08470264695,-0.01163771348,-0.07319984238,0.07025952172,0.03226901488,0.0747118644,-0.007449452455,-0.1845928309,0.1557023689,0.1129153661,-0.149049077,-0.05289715309,0.166229161,0.1871753952,0.2497462479,0.04817057157,-0.08402306311,0.1423293873,0.1217503525,0.01336794445,0.07992719562,0.1678726248,-0.2137166256,-0.05063427529,0.04466025174,0.01126047284,-0.1285638139,0.01276876762,-0.153191831,-0.04812983527,-0.1278507523,0.09420769293,-0.04027213681,-0.09595554316,0.02447967224,0.1490488307,-0.08213351505,-0.01882311885,0.1648014842,-0.2411357268,-0.1432278215,0.0003733597569,0.01298497424,-0.1714513187,-0.07431869383,0.06813126447,-0.08453703634,-0.2006617291,0.1262452846,-0.2366654714,-0.1881247049,-0.09205209726,0.1058788132,-0.280619789,0.2531390898,0.06650901221,-0.01659195445,-0.04290960591,-0.1510497274,-0.01809102024,0.2460914151,-0.07786110041,0.06935954863,-0.215702842,0.1185762582,-0.1668787947,0.08194043484,-0.1029436877,-0.1973204326,0.09234613787,-0.1249822222,0.09670290816,-0.1524949685,0.0324689188,-0.07848655713,0.1093990502,-0.01395692286,-0.07491593891,0.3173781706,0.2086005757,-0.1095814321,0.1469436546,-0.09478420215
-0.003185412325,0.0252636206,0.06629980617,0.05065887889,-0.07700361894,-0.2181228077,-0.05491716105,0.06537397672,-0.08890190529,-0.1523034273,0.04928058534,-0.03060551026,-0.2419686798,-0.003491635932,0.1333560067,0.07420814652,-0.1801337801,-0.01098559411,0.03491917857,0.128709828,0.3526503497,-0.07162214332,0.08256386273,0.1890140015,0.07319312911,0.022858588,0.02050060389,-0.1737604226,-0.031404379,-0.1652615887,-0.1628289416,-0.15938596,-0.01364565306,0.07121387256,0.01793723714,0.2225726739,0.01223037561,-0.1039828435,0.09230198376,0.01214571524,0.1046548635,-0.1254706065,0.2633333961,0.04503451715,-0.1534941653,-0.02810015954,-0.2540360471,-0.1272427975,0.182504842,-0.1207877816,-0.04693702362,0.1660181839,-0.02413958612,0.1685005535,0.02036330594,-0.127685944,-0.3775867228,0.4028200748,-0.09023091314,-0.2172423238,0.1577500316,0.01309507338,-0.07502245664,-0.0794531385,-0.1069763153,-0.02568960258,0.1088670082,-0.01525180435,-0.1613776455,0.09776135018,-0.05671217489,0.09352568516,0.04314251384,-0.0361193091,-0.1454569799,-0.3388586422,0.05060275099,0.1254260729,-0.2275207912,-0.145817286,0.06055452551,0.01542038084,-0.07169460019,0.08150077299
